
\data\
ngram 1=25233
ngram 2=40074
ngram 3=2343

\1-grams:
-0.7955604	</s>
-99	<s>	-0.174535
-1.511274	[s]	-0.1931166
-3.821871	a	-0.3338443
-4.386142	aa	-0.4013397
-4.386142	aamlungiselelo	-0.2874194
-4.562233	ababa	-0.3010181
-4.562233	abababhekayo	-0.3010181
-4.562233	ababaletha	-0.3010181
-4.562233	ababali	-0.3010181
-4.562233	ababalulekile	-0.3010181
-4.562233	ababamba	-0.2252484
-4.386142	ababambe	-0.4013397
-4.562233	ababan	-0.3010181
-4.562233	ababe	-0.3010181
-4.562233	ababebandlululiwe	-0.3010181
-4.562233	ababebukele	-0.3010181
-4.562233	ababefaka	-0.2252484
-4.562233	ababefunda	-0.2252484
-4.562233	ababehamba	-0.3010181
-4.386142	ababenamandla	-0.4771034
-4.562233	ababencishwe	-0.3010181
-4.562233	ababenomcebo	-0.3010181
-4.562233	ababenza	-0.2252484
-4.562233	ababephendula	-0.2252484
-4.386142	ababesekudingisweni	-0.4013397
-4.562233	ababezolondoloza	-0.3010181
-4.562233	ababhali	-0.3010181
-4.562233	ababhalise	-0.2252484
-4.085112	ababhalisile	-0.7023696
-4.562233	ababhekana	-0.3010181
-4.562233	ababheke	-0.2252484
-4.562233	ababhema	-0.3010181
-4.562233	ababhemayo	-0.3010181
-4.562233	ababi	-0.3010181
-4.386142	ababika	-0.2252342
-4.386142	ababili	-0.2252342
-4.386142	ababona	-0.4771034
-4.562233	ababonakala	-0.2252484
-4.386142	ababophezekile	-0.4771034
-4.562233	ababoshiwe	-0.3010181
-4.562233	ababoshwe	-0.3010062
-4.562233	ababuke	-0.2252484
-4.562233	ababulawa	-0.3010181
-4.562233	ababulewe	-0.2252484
-4.562233	ababusi	-0.3010181
-4.386142	ababuya	-0.2252342
-4.562233	abacala	-0.3010181
-4.562233	abaceli	-0.3010181
-4.562233	abachaziwe	-0.2252484
-4.562233	abaculi	-0.3010181
-4.562233	abacwaningi	-0.2252484
-4.562233	abadala	-0.3010181
-4.562233	abadalulwa	-0.3010181
-4.386142	abadingayo	-0.4770975
-4.562233	abadingeka	-0.3010181
-4.562233	abadla	-0.3010181
-4.562233	abadlala	-0.2252484
-4.562233	abadlale	-0.2252484
-4.562233	abadlali	-0.3010181
-4.386142	abadle	-0.2090159
-4.562233	abadlulisi	-0.2252484
-4.562233	abadobela	-0.3010181
-4.386142	abadobi	-0.4771034
-4.562233	abadukile	-0.3010121
-4.562233	abadumile	-0.2252484
-4.562233	abafa	-0.2252484
-4.261203	abafake	-0.3220875
-4.562233	abafakelwa	-0.2252484
-4.562233	abafaki	-0.3010181
-4.386142	abafakwe	-0.2874194
-4.562233	abafana	-0.2252484
-4.386142	abafanele	-0.3010062
-4.562233	abafaneleke	-0.2252484
-4.164293	abafisa	-0.3543355
-4.562233	abafohlayo	-0.2252484
-4.562233	abafowenu	-0.3010181
-4.562233	abafowethu	-0.3010181
-4.562233	abafufusayo	-0.2252484
-4.261203	abafuna	-0.2089792
-4.261203	abafundi	-0.3221442
-4.562233	abafundisi	-0.3010181
-4.386142	abafuneka	-0.2874194
-4.562233	abafunyanwa	-0.3010181
-4.261203	abagananayo	-0.5262784
-4.562233	abaganene	-0.3010181
-4.562233	abagcina	-0.3010181
-4.562233	abagcini	-0.2252484
-4.562233	abagibeli	-0.3010181
-4.562233	abagqamile	-0.3010181
-4.562233	abagqunywe	-0.3010181
-4.562233	abagula	-0.3010181
-4.261203	abagulayo	-0.3843233
-4.562233	abagunyazwe	-0.3010181
-4.562233	abaguquli	-0.2252484
-4.562233	abahamba	-0.3010181
-4.562233	abahlala	-0.3010181
-4.562233	abahlali	-0.3010181
-4.562233	abahlanganayo	-0.2252484
-4.562233	abahlaseli	-0.3010181
-4.562233	abahlengi	-0.2252484
-4.562233	abahlengikazi	-0.3010181
-4.386142	abahlinzeki	-0.3010062
-4.562233	abahloli	-0.3010181
-4.562233	abahlolwayo	-0.2252484
-4.562233	abahlongozwayo	-0.2252484
-4.386142	abahlonishwa	-0.2874194
-4.562233	abahlukene	-0.3010181
-4.562233	abahlukunyeziwe	-0.2252484
-4.562233	abahlukunyezwe	-0.3010181
-4.562233	abahluleli	-0.2252484
-4.562233	abahluphekayo	-0.2252484
-4.562233	abahluphekile	-0.3010181
-4.562233	abahlushwayo	-0.2874378
-4.562233	abahlwempu	-0.3010181
-4.386142	abaholelwa	-0.2874194
-4.261203	abaholi	-0.5262784
-4.562233	abahumushi	-0.3010181
-4.386142	abajube	-0.4013397
-4.562233	abajwayelekile	-0.3010181
-4.562233	abake	-0.3010181
-4.562233	abakhabokamama	-0.3010181
-4.386142	abakhali	-0.2874194
-4.562233	abakhethelwe	-0.3010181
-4.386142	abakhethwa	-0.2874194
-4.562233	abakhi	-0.3010181
-4.562233	abakhipha	-0.2252484
-4.562233	abakhiqizi	-0.3010181
-4.386142	abakhokhela	-0.4771034
-4.386142	abakhokhelwayo	-0.2874194
-4.386142	abakhokhi	-0.2252271
-4.562233	abakholwa	-0.2252484
-4.562233	abakhona	-0.2252484
-4.562233	abakhongi	-0.3010181
-4.562233	abakhudlwana	-0.3010181
-4.261203	abakhulelwe	-0.6020184
-4.562233	abakhulu	-0.3010181
-4.386142	abakhulumayo	-0.2874194
-4.562233	abakhulumeli	-0.3010181
-4.562233	abakhunkuli	-0.3010181
-4.562233	abakhuzi	-0.3010181
-4.562233	abakhwenyana	-0.3010062
-4.562233	abakhweza	-0.3010181
-4.562233	abakokhubonye	-0.3010181
-4.562233	abakubo	-0.3010181
-4.562233	abakucabangayo	-0.2252484
-4.562233	abakufundayo	-0.3010181
-4.562233	abakufundile	-0.2252484
-4.562233	abakulelizwe	-0.2252484
-4.562233	abakuthatha	-0.3010181
-4.562233	abakutholile	-0.3010181
-4.562233	abakwa	-0.3010181
-4.562233	abakwamanye	-0.2252484
-4.562233	abakwamidiyani	-0.2252484
-4.562233	abakwandwandwe	-0.3010181
-4.562233	abakwanzuza	-0.3010181
-4.562233	abakwazi	-0.3009705
-4.386142	abakwelaphayo	-0.2090159
-4.386142	abakweletayo	-0.4771034
-4.386142	abalaleleisib	-0.4771034
-4.562233	abalaleli	-0.2252484
-4.562233	abalalisiwe	-0.2252484
-4.386142	abalandela	-0.2874194
-4.562233	abalandelayo	-0.2252484
-4.386142	abalandeli	-0.4013397
-4.562233	abaleke	-0.2252484
-4.562233	abalele	-0.3010181
-4.562233	abalifica	-0.2252484
-4.562233	abalimi	-0.3010181
-4.562233	abalisebenzisayo	-0.2252484
-4.562233	abalufundele	-0.3010181
-4.386142	abalulekile	-0.4771034
-4.386142	abalulwe	-0.4013397
-4.562233	abalungisa	-0.2252484
-4.562233	abalusebenzisa	-0.2252484
-4.386142	abalwe	-0.2252342
-4.562233	abamalayisense	-0.2252484
-4.562233	abamane	-0.3010181
-4.562233	abamangalelwa	-0.2252484
-4.562233	abamaphakathi	-0.3010121
-4.562233	abamaphepha	-0.3010181
-4.562233	abambalwa	-0.3010181
-4.562233	abambe	-0.3010181
-4.562233	abambiqhaza	-0.3010181
-4.386142	abambise	-0.2874194
-4.562233	abambisene	-0.3010181
-4.562233	abamele	-0.3010181
-4.386142	abameleizishayamthetho	-0.4013397
-4.562233	abameli	-0.3010181
-4.562233	abamhlophe	-0.3010181
-4.562233	abammele	-0.3010181
-4.562233	abammeli	-0.3010181
-4.562233	abammelki	-0.3010181
-4.562233	abamnyama	-0.3010181
-4.562233	abampisholo	-0.2252484
-4.562233	abampofu	-0.3010181
-4.562233	abamsulwa	-0.3010181
-4.562233	abamukelwe	-0.3010181
-4.562233	aban	-0.3010181
-4.562233	abanagunya	-0.3010181
-4.562233	abanakekela	-0.3010181
-4.562233	abanakekelanayo	-0.2252484
-4.562233	abanama	-0.3010181
-4.562233	abanamagunya	-0.3010181
-4.562233	abanamakhono	-0.3010181
-4.562233	abanamalungelo	-0.3010181
-4.562233	abanamathalente	-0.3010181
-4.386142	abanawo	-0.3009288
-4.386142	abanayo	-0.4771034
-4.562233	abancane	-0.3010181
-4.562233	abandakanya	-0.3010062
-4.562233	abandanyeka	-0.3010181
-4.562233	abandayo	-0.3010181
-4.261203	abandlululayo	-0.3843233
-4.562233	abane	-0.3010181
-4.386142	abanecala	-0.2874194
-4.562233	abanegunya	-0.3010181
-4.562233	abanemfundiso	-0.3010181
-4.386142	abaneminyaka	-0.4771034
-4.562233	abanempilo	-0.3010181
-4.562233	abanenkinga	-0.2252484
-4.562233	abanentshisekelo	-0.3010181
-4.562233	abanesamba	-0.3010121
-4.562233	abanesibindi	-0.3010181
-4.562233	abanezidingo	-0.3010181
-4.386142	abanezifunda	-0.2874194
-4.562233	abanezimvume	-0.3010181
-4.562233	abanezincwadi	-0.3010181
-4.562233	abanezinkinga	-0.3010181
-4.562233	abanga	-0.3010181
-4.562233	abangabahlanganyeli	-0.3010181
-4.386142	abangabahlengikazi	-0.4770856
-4.386142	abangabahwebi	-0.2874194
-4.562233	abangabanikazi	-0.3010181
-4.562233	abangabatshali	-0.3010181
-4.562233	abangadumile	-0.2252484
-4.562233	abangafuni	-0.3010181
-4.562233	abangahambisani	-0.2874378
-4.562233	abangahlangabezana	-0.2252484
-4.562233	abangahle	-0.2252484
-4.562233	abangahlungiwe	-0.3010181
-4.562233	abangakaze	-0.3010181
-4.562233	abangaki	-0.2252484
-4.562233	abangakufezi	-0.3010181
-4.562233	abangakwazi	-0.3010002
-4.386142	abangamalunga	-0.4771034
-4.261203	abangamaphini	-0.3843233
-4.562233	abanganayo	-0.3010121
-4.562233	abanganikwa	-0.3010181
-4.562233	abangaphakathi	-0.3010181
-4.562233	abangaphandle	-0.3010181
-4.562233	abangaqhubeka	-0.3010181
-4.562233	abangarejistiwe	-0.2252484
-4.386142	abangasakukhumbuli	-0.4771034
-4.562233	abangase	-0.3010181
-4.562233	abangathola	-0.3010181
-4.386142	abangathwalwa	-0.4013397
-4.562233	abangavumeleka	-0.2252484
-4.562233	abangayenza	-0.3010181
-4.562233	abangazange	-0.3010181
-4.562233	abangaze	-0.2252484
-4.562233	abangaziwa	-0.3010181
-4.562233	abangcono	-0.3010181
-4.018165	abangeke	-0.3058818
-4.386142	abangela	-0.4013397
-4.562233	abangena	-0.3010181
-4.562233	abangenamabhodwe	-0.2252484
-4.562233	abangenelwa	-0.3010181
-4.562233	abangenza	-0.300649
-4.386142	abangesibo	-0.4013397
-4.386142	abangewona	-0.4771034
-4.562233	abangochwepheshe	-0.3010181
-4.562233	abangomakhelwane	-0.3010181
-4.562233	abangongoti	-0.3010181
-4.562233	abangontanga	-0.2252484
-4.562233	abanhlobonhlobo	-0.3010181
-4.562233	abanikazi	-0.3010181
-4.562233	abanikela	-0.3010181
-4.562233	abaningi	-0.3010181
-4.562233	abanini	-0.3010181
-4.562233	abanjalo	-0.2252484
-4.562233	abanjengomama	-0.3010062
-4.562233	abanobungcweti	-0.3010181
-4.562233	abanobungoti	-0.3010181
-4.562233	abanohlonze	-0.3010062
-4.562233	abanokukwenza	-0.2252484
-4.562233	abanokuzimisela	-0.3010181
-4.562233	abanolwazi	-0.2252484
-4.562233	abanothando	-0.3010181
-4.562233	abanozwela	-0.3010181
-4.562233	abant	-0.3010181
-4.261203	abantabakhe	-0.3843233
-3.632814	abantu	-0.2977805
-4.562233	abantulayo	-0.3010181
-4.562233	abantwana	-0.3010181
-4.562233	abanukubeza	-0.2252484
-4.562233	abanye	-0.3010062
-4.562233	abapendile	-0.3010181
-4.562233	abaphathelene	-0.3010181
-4.562233	abaphathi	-0.3010181
-4.261203	abaphathisikhundla	-0.5262784
-4.562233	abaphathiswaukuba	-0.3010181
-4.562233	abaphehla	-0.3010181
-4.562233	abaphelekezele	-0.3010181
-4.562233	abaphelele	-0.2252484
-4.562233	abaphelezela	-0.3010181
-4.562233	abaphendula	-0.3010181
-4.562233	abaphephise	-0.3010181
-4.164293	abaphethe	-0.4013183
-4.562233	abaphezulu	-0.3010181
-4.562233	abaphila	-0.2252484
-4.562233	abaphilayo	-0.2252484
-4.562233	abaphinde	-0.3010181
-4.562233	abaphuma	-0.2252484
-4.562233	abaprintile	-0.3010181
-4.562233	abaqaphi	-0.3010181
-4.562233	abaqashelwa	-0.3010181
-4.562233	abaqashi	-0.3010181
-4.562233	abaqashiwe	-0.2252484
-4.562233	abaqashwa	-0.3010181
-4.562233	abaqashwe	-0.3010002
-4.562233	abaqeda	-0.2252484
-4.562233	abaqeqesheke	-0.2252484
-4.562233	abaqeqeshiwe	-0.3010181
-4.562233	abaqhuba	-0.3010181
-4.562233	abaqhudelani	-0.3010181
-4.562233	abaqokiwe	-0.3010181
-4.562233	abaqondene	-0.2252484
-4.562233	abaqoqa	-0.2252484
-4.562233	abaqoqi	-0.3010181
-4.562233	abaqotho	-0.3010181
-4.562233	abarejistiwe	-0.2252484
-4.562233	abarimi	-0.2252484
-4.562233	abasafufusa	-0.3010181
-4.562233	abasangena	-0.3010181
-4.562233	abasazobulawa	-0.3010181
-4.562233	abase	-0.2252484
-4.562233	abasebangeni	-0.3010121
-4.562233	abasebenza	-0.3010181
-4.562233	abasebenzayo	-0.2252484
-4.164293	abasebenzi	-0.2921385
-4.562233	abasebenzisa	-0.3010121
-4.386142	abasebenzisi	-0.2874194
-4.261203	abasekelayo	-0.305926
-4.562233	abasekhona	-0.3010181
-4.085112	abaselivini	-0.5304083
-4.386142	abasemagunyeni	-0.4013397
-4.562233	abasemajele	-0.3010181
-4.386142	abasemazingeni	-0.4013397
-4.261203	abasembonini	-0.5262784
-4.562233	abasemqoka	-0.2252484
-4.562233	abasenzile	-0.3010181
-4.562233	abasesesiswini	-0.3010181
-4.386142	abasha	-0.2252342
-4.386142	abashadikazi	-0.4771034
-4.562233	abashana	-0.3010181
-4.562233	abashayeli	-0.3010181
-4.562233	abashibhile	-0.2252484
-4.562233	abashicilele	-0.3010181
-4.562233	abashumayela	-0.2252484
-4.386142	abasifazane	-0.4771034
-4.562233	abasikhethile	-0.3010181
-4.562233	abasiza	-0.3010181
-4.562233	abasizi	-0.3010181
-4.562233	abasmthethweni	-0.2252484
-4.562233	abasohleni	-0.2874378
-4.562233	abasukwa	-0.3010181
-4.562233	abasunguli	-0.3010181
-4.386142	abathandanayo	-0.4771034
-4.261203	abathathabathe	-0.5262784
-4.562233	abathathe	-0.3010062
-4.164293	abathathu	-0.4013254
-4.562233	abathembu	-0.2252484
-4.562233	abathengi	-0.2252484
-4.386142	abathengisa	-0.2874194
-4.386142	abathi	-0.4013397
-4.386142	abathile	-0.4013397
-4.562233	abathinteka	-0.2252484
-4.261203	abathintekayo	-0.3978626
-4.261203	abathize	-0.5262784
-4.562233	abathokozela	-0.3010181
-4.562233	abathola	-0.3010181
-4.562233	abathumela	-0.2252484
-4.562233	abathwala	-0.3010181
-4.386142	abathwali	-0.4771034
-4.562233	abatshali	-0.3010181
-4.562233	abavakashi	-0.3010181
-4.562233	abavela	-0.3010181
-4.562233	abavele	-0.3010181
-4.386142	abavelele	-0.4771034
-4.562233	abavoti	-0.3010181
-4.562233	abavunyelwe	-0.3010181
-4.562233	abawabayo	-0.2252484
-4.562233	abawanikeziwe	-0.2252484
-4.562233	abawenzile	-0.3010181
-4.386142	abawubonayo	-0.4013397
-4.562233	abawufundele	-0.2252484
-4.261203	abawusebenzisayo	-0.3843233
-4.386142	abaxekekile	-0.2252342
-4.386142	abaxhasi	-0.4771034
-4.261203	abaxolelwa	-0.6020303
-4.562233	abaye	-0.3010181
-4.562233	abayibhekayo	-0.3010181
-4.562233	abayifunayo	-0.2252484
-4.562233	abayisisekelo	-0.3010181
-4.562233	abayitholayo	-0.3010181
-4.562233	abayizihlabathi	-0.3010181
-4.386142	abayizihlobo	-0.4771034
-4.562233	abayizingqalabutho	-0.3010181
-4.562233	abayizinhlangano	-0.3010181
-4.562233	abayizintandane	-0.3010181
-4.562233	abayizisulu	-0.3010181
-4.562233	abayoqeqeshelwa	-0.3010181
-4.164293	abazali	-0.2921527
-4.562233	abazama	-0.3010181
-4.562233	abazange	-0.3010181
-4.386142	abaze	-0.4771034
-4.261203	abazele	-0.3843233
-4.562233	abazenzile	-0.3010181
-4.562233	abazibandakanya	-0.2252484
-4.562233	abazibandakanye	-0.3010181
-4.562233	abazibekele	-0.2252484
-4.386142	abazicubungulayo	-0.2874194
-4.562233	abazifundelwayo	-0.3010181
-4.562233	abazihoshule	-0.3010181
-4.562233	abazimele	-0.2252484
-4.562233	abazinikelayo	-0.3010181
-4.562233	abazinikele	-0.2252484
-4.562233	abaziphethe	-0.2252484
-4.562233	abazishilo	-0.2252484
-4.562233	abazithola	-0.3010181
-4.562233	abazitholayo	-0.2252484
-4.562233	abazizwayo	-0.3010181
-4.562233	abazoba	-0.2252484
-4.562233	abazobamba	-0.2252484
-4.562233	abazobe	-0.3010181
-4.562233	abazokudla	-0.2252484
-4.562233	abazolinikezwa	-0.2252484
-4.562233	abazomkhokhela	-0.3010181
-4.562233	abazonatshwa	-0.3010181
-4.562233	abazophatha	-0.3010181
-4.562233	abazoqashwa	-0.3010181
-4.562233	abazoxoxisana	-0.3010181
-4.562233	abazozinakekela	-0.3010181
-4.562233	abazwile	-0.2252484
-4.085112	abe	-0.3520932
-4.386142	abebebhema	-0.4013397
-4.562233	abebekuthwele	-0.3010181
-4.562233	abebondliwa	-0.3010181
-4.562233	abedirectorate	-0.3010062
-4.164293	abegcis	-0.2873518
-4.386142	abehlukahlukene	-0.4771034
-4.562233	abekade	-0.3010181
-4.562233	abeke	-0.3010181
-4.562233	abekhona	-0.3010181
-4.562233	abekiwe	-0.3010181
-4.562233	abekwa	-0.3010121
-4.386142	abekwe	-0.4013397
-4.562233	abekwenza	-0.2252484
-4.386142	abelaphi	-0.4771034
-4.562233	abelekeleli	-0.3010181
-4.562233	abelidla	-0.3010181
-4.562233	abeluleki	-0.3010181
-4.562233	abelungu	-0.3010181
-4.562233	abelwe	-0.2252484
-4.261203	abemathathu	-0.305926
-4.386142	abenelukuluku	-0.4771034
-4.562233	abenguni	-0.3010181
-4.562233	abenza	-0.3010181
-4.562233	abenze	-0.2252484
-4.386142	abenzi	-0.4770975
-4.562233	abephula	-0.2252484
-4.562233	abeqile	-0.3010181
-4.386142	abesars	-0.4770617
-4.562233	abese	-0.3010181
-4.562233	abesifazane	-0.3010181
-4.562233	abesigceme	-0.2874378
-4.562233	abesimame	-0.2252484
-4.562233	abesizulu	-0.2252484
-4.562233	abesobozelwa	-0.2252484
-4.261203	abesouth	-0.2089497
-4.562233	abeswele	-0.3010181
-4.562233	abet	-0.3010181
-4.562233	abethembekile	-0.3010181
-4.562233	abethula	-0.2252484
-4.562233	abethuswa	-0.2252484
-4.562233	abeve	-0.2252484
-4.562233	abeyibambe	-0.3010121
-4.562233	abezemidlalo	-0.3010181
-4.562233	abezimboni	-0.3010181
-4.562233	abezindaba	-0.3010181
-4.562233	abezizwe	-0.2252484
-4.562233	abezokuthutha	-0.3010181
-4.562233	abezomthetho	-0.2252484
-4.562233	abfake	-0.2252484
-4.085112	abhale	-0.2600802
-4.261203	abhaleke	-0.3843233
-4.261203	abhalise	-0.3979102
-4.562233	abhaliwe	-0.3010181
-4.562233	abhalwa	-0.3010181
-4.386142	abhalwe	-0.4771034
-4.562233	abheke	-0.3010181
-4.562233	abhekene	-0.2252484
-4.562233	abhekiswe	-0.3010181
-4.386142	abike	-0.4013397
-4.562233	abikele	-0.3010181
-4.562233	abilayo	-0.3010181
-4.562233	abingelele	-0.3010181
-4.164293	abo	-0.4012688
-4.386142	abolekise	-0.4013397
-4.562233	abomndeni	-0.3010181
-4.386142	abomnyango	-0.3009824
-4.562233	abomvu	-0.2252484
-4.562233	abonakale	-0.2252484
-4.386142	abone	-0.2874194
-4.562233	abonge	-0.3010181
-4.562233	abonisane	-0.3010181
-4.562233	abonise	-0.3010181
-4.562233	abophayo	-0.3010181
-4.386142	abosizo	-0.4771034
-4.562233	abrahama	-0.2252484
-4.562233	abrahamu	-0.2252484
-4.562233	abrona	-0.2252484
-4.386142	absa	-0.2252342
-4.562233	abubusha	-0.3010181
-4.386142	abucayi	-0.4013397
-4.562233	abuke	-0.3010181
-4.562233	abukeke	-0.3010181
-4.562233	abunelisi	-0.3009288
-3.960173	abuye	-0.3220956
-4.562233	abuyekeze	-0.3010181
-4.562233	abuyise	-0.3010181
-4.386142	abuze	-0.4771034
-4.562233	abuzwe	-0.2252484
-4.562233	acabange	-0.2252484
-4.562233	acacile	-0.2252484
-4.386142	academy	-0.4770915
-4.562233	acangcathe	-0.3010181
-4.562233	acatshangiwe	-0.3010181
-4.562233	accords	-0.2252484
-4.562233	acebile	-0.3010181
-4.562233	acela	-0.3010181
-4.562233	aceliwe	-0.2252484
-4.562233	achaza	-0.2252484
-4.164293	achaze	-0.2919897
-4.562233	achazwe	-0.3010181
-4.562233	achitha	-0.2252484
-4.562233	acishe	-0.3010181
-4.562233	acoboshise	-0.3010181
-4.386142	act	-0.4013397
-4.386142	actors	-0.4013397
-4.562233	acubungule	-0.3010062
-4.386142	acwaninge	-0.4770677
-4.562233	adabule	-0.2252484
-4.386142	adambisa	-0.4013397
-4.562233	adinga	-0.2252484
-4.562233	adingeka	-0.2252484
-4.386142	adingekayo	-0.3009883
-4.562233	adingekela	-0.2252484
-4.562233	adingida	-0.3010181
-4.562233	adlale	-0.2252484
-4.562233	adlule	-0.2252484
-4.562233	administrator	-0.2252484
-4.562233	adoni	-0.2252484
-4.562233	adume	-0.2252484
-4.562233	adumise	-0.2252484
-4.562233	aduze	-0.2252484
-4.164293	adwetshelwe	-0.40129
-4.562233	afa	-0.3010181
-4.386142	afaka	-0.4013397
-4.386142	afake	-0.3006371
-4.562233	afakela	-0.3010181
-4.562233	afakele	-0.2252484
-4.562233	afakelwe	-0.3010181
-4.562233	afakwe	-0.3010181
-4.386142	afana	-0.3009943
-4.562233	afanayo	-0.2252484
-4.562233	afane	-0.3010181
-4.562233	afanele	-0.2252484
-4.386142	afanelekile	-0.2874194
-4.562233	afc	-0.3009943
-4.562233	afelwe	-0.3010181
-4.562233	aficwe	-0.2252484
-4.562233	afidavithi	-0.3010121
-4.562233	afika	-0.3010181
-4.562233	afike	-0.3010181
-4.562233	afikelele	-0.2252484
-4.562233	afikelwa	-0.2252484
-4.562233	afingqiwe	-0.3010181
-4.562233	afinyelela	-0.2252484
-4.562233	afinyelele	-0.2252484
-4.562233	afisa	-0.3010181
-4.562233	afise	-0.3010181
-4.164293	africa	-0.4013112
-3.909021	african	-0.2917344
-3.344749	afrika	-0.6226851
-4.562233	afrila	-0.3010181
-4.562233	afrka	-0.3010181
-4.562233	afunde	-0.2252484
-4.562233	afuneka	-0.2252484
-4.562233	agazingiwe	-0.2252484
-4.562233	agcina	-0.3010181
-4.562233	agcine	-0.2252484
-4.562233	agcizelela	-0.3010181
-4.562233	agcwale	-0.2252484
-4.562233	agcwalise	-0.3009467
-4.562233	agcwaliswe	-0.3010181
-4.562233	age	-0.2252484
-4.386142	agency	-0.4013397
-4.562233	agent	-0.2252484
-4.562233	agijima	-0.3010181
-4.562233	agome	-0.3010181
-4.386142	agubude	-0.4771034
-4.562233	agugisa	-0.3010181
-4.562233	aguqule	-0.2252484
-4.562233	aguquliwe	-0.3010181
-4.562233	ahambe	-0.2252484
-4.562233	ahambisa	-0.2252484
-4.562233	ahambisana	-0.2252484
-4.164293	ahambisane	-0.2921385
-4.386142	ahanjiswe	-0.4771034
-4.562233	ahaye	-0.3010181
-4.562233	ahi	-0.2252484
-4.562233	ahihudi	-0.2252484
-4.562233	ahindu	-0.2252484
-4.562233	ahira	-0.2252484
-4.562233	ahlahle	-0.3010181
-4.386142	ahlangabezane	-0.4013397
-4.386142	ahlangana	-0.2874194
-4.562233	ahlanganisa	-0.2252484
-4.562233	ahlangene	-0.3010181
-4.562233	ahlanzekile	-0.3010181
-4.562233	ahlanzela	-0.3010181
-4.562233	ahleke	-0.3010181
-4.261203	ahlele	-0.5262784
-4.261203	ahleleka	-0.5262784
-4.562233	ahleli	-0.2252484
-4.562233	ahlinzeka	-0.3010181
-4.562233	ahlinzeke	-0.3010181
-4.562233	ahlinzekwa	-0.3010121
-4.562233	ahlobene	-0.3010181
-4.562233	ahlolwe	-0.3010121
-4.562233	ahloniphekile	-0.3010181
-4.386142	ahlonishwe	-0.4771034
-4.562233	ahlonzwe	-0.3010181
-4.386142	ahlose	-0.4013397
-4.562233	ahlukahlukene	-0.3010181
-4.562233	ahlukanisa	-0.2252484
-4.562233	ahlukene	-0.2252484
-4.562233	ahlukile	-0.3010181
-4.562233	ahluleka	-0.3010181
-4.562233	ahluleke	-0.3010181
-4.562233	ahlupheka	-0.2252484
-4.562233	aholelwe	-0.2252484
-4.562233	ahudi	-0.2252484
-4.562233	ahunyushiwe	-0.2252484
-4.562233	ahweba	-0.3010181
-3.909021	air	-0.477038
-4.386142	airlines	-0.2874194
-4.562233	ajabulile	-0.3010181
-4.562233	ajahe	-0.3010181
-4.562233	ajwayele	-0.2252484
-4.562233	akabange	-0.3010181
-4.562233	akabe	-0.2252484
-4.562233	akade	-0.3010181
-4.562233	akadikibalanga	-0.3010181
-4.562233	akafake	-0.3010181
-4.562233	akafile	-0.3010181
-4.562233	akafuni	-0.3010181
-4.562233	akahulumeni	-0.2252484
-4.562233	akakabuyi	-0.3010181
-4.562233	akakancibiliki	-0.2252484
-4.261203	akakasitholi	-0.5262784
-4.562233	akake	-0.3010181
-4.386142	akakhalelwa	-0.4771034
-4.562233	akakuyeki	-0.2252484
-4.562233	akakwazi	-0.3010181
-4.562233	akala	-0.3010181
-4.386142	akalungele	-0.4771034
-4.562233	akanalo	-0.3010181
-4.386142	akanayo	-0.4013397
-4.562233	akangabandakanywa	-0.2252484
-4.562233	akangabe	-0.3010181
-4.562233	akanye	-0.3010181
-4.562233	akasadli	-0.3010181
-4.562233	akasamthinti	-0.3010181
-4.562233	akasebenzisi	-0.3010181
-4.562233	akasekho	-0.3010181
-4.562233	akaseve	-0.3010181
-4.562233	akasezukuhamba	-0.3010181
-4.562233	akashiyi	-0.3010181
-4.562233	akasona	-0.3010181
-4.562233	akavuki	-0.2252484
-4.562233	akawasebenzisela	-0.3010181
-4.562233	akaxhasi	-0.3010181
-4.562233	akaxhumi	-0.3010181
-4.562233	akaze	-0.3010181
-4.562233	akazesuli	-0.3010181
-4.562233	akazivumelanga	-0.2252484
-4.562233	ake	-0.3010002
-4.386142	akekho	-0.300905
-4.562233	aketho	-0.3010181
-4.562233	akha	-0.3010181
-4.562233	akhahlamezwa	-0.3010181
-4.562233	akhale	-0.2252484
-4.562233	akhande	-0.3010181
-4.562233	akhanyiswa	-0.3010181
-4.386142	akhathazeke	-0.4771034
-4.562233	akhawuntenti	-0.3010181
-4.386142	akhe	-0.2252271
-4.562233	akhethe	-0.3010062
-4.562233	akhethwa	-0.3010181
-4.562233	akhethwe	-0.3010181
-4.386142	akhipha	-0.4013397
-4.562233	akhiphe	-0.3010181
-4.261203	akhiqize	-0.3843233
-4.562233	akhishelwa	-0.3010181
-4.562233	akhishiwe	-0.2252484
-4.562233	akhishwa	-0.3010181
-4.562233	akhishwe	-0.2252484
-4.562233	akhiwa	-0.2252484
-4.562233	akho	-0.2252484
-4.562233	akhokhe	-0.2252484
-4.386142	akhokhelwayo	-0.4771034
-4.261203	akhokhelwe	-0.305926
-4.562233	akhombise	-0.3010181
-4.562233	akhona	-0.3009943
-4.562233	akhuluma	-0.2252484
-4.386142	akhumbule	-0.2874194
-4.562233	akhuseleinqubekelaphambili	-0.3010181
-4.562233	akhuthaze	-0.2252484
-4.562233	akngeni	-0.2252484
-4.562233	akobe	-0.2252484
-4.562233	akolanga	-0.2252484
-4.386142	akubali	-0.2874194
-4.562233	akube	-0.3010181
-4.562233	akubhalile	-0.2252484
-4.562233	akubi	-0.3010181
-4.562233	akubona	-0.3010181
-4.386142	akuchazi	-0.2874194
-4.562233	akuchaziwe	-0.3010181
-4.562233	akudingekile	-0.3010181
-4.562233	akudliwa	-0.3010181
-4.562233	akudlulisele	-0.3010181
-4.562233	akufanelanga	-0.3010181
-4.562233	akufanele	-0.3010181
-4.562233	akufani	-0.3010181
-4.562233	akufunayo	-0.2252484
-4.562233	akuhlinzekwe	-0.3010181
-4.261203	akuholeli	-0.3843233
-4.562233	akukhathalekile	-0.2252484
-4.164293	akukho	-0.4013112
-4.562233	akukholakali	-0.3010181
-4.562233	akukhona	-0.3010181
-4.562233	akulahlwa	-0.3010181
-4.562233	akulayele	-0.3010181
-4.562233	akuleli	-0.2252484
-4.562233	akulezi	-0.3010181
-4.386142	akulinde	-0.4013397
-4.562233	akulo	-0.2252484
-4.562233	akulona	-0.2252484
-4.562233	akulula	-0.2252484
-4.018165	akumele	-0.3058892
-4.562233	akunamthelela	-0.3010181
-4.562233	akunamuntu	-0.3010181
-4.386142	akunathonya	-0.2874194
-3.960173	akunelisi	-0.5773104
-4.562233	akungaphinde	-0.2252484
-4.562233	akungcono	-0.3010181
-4.562233	akunjalo	-0.2252484
-4.562233	akuphelezele	-0.2252484
-4.562233	akuphephile	-0.2252484
-4.562233	akuphethe	-0.3010181
-4.164293	akuqala	-0.275948
-4.386142	akuqhathanise	-0.4771034
-4.562233	akuqondiwe	-0.3010181
-4.562233	akusathi	-0.2252484
-4.562233	akusenani	-0.3010181
-4.562233	akusho	-0.2252484
-4.562233	akushoukuthi	-0.3010181
-4.562233	akusikhona	-0.2252484
-4.562233	akusilima	-0.3010181
-4.562233	akusisizanga	-0.2252484
-4.562233	akusiyo	-0.3010181
-4.562233	akusizi	-0.3010181
-4.562233	akusona	-0.2252484
-4.562233	akusukile	-0.2252484
-4.562233	akuthathwa	-0.3010181
-4.386142	akuthathwe	-0.4771034
-4.562233	akuthi	-0.2252484
-4.562233	akutholayo	-0.3010181
-4.562233	akuthole	-0.3010181
-4.562233	akuvamile	-0.2252484
-4.562233	akuvezelwa	-0.2252484
-4.562233	akuvunyelwe	-0.2252484
-4.562233	akuwona	-0.2252484
-4.562233	akuyo	-0.2252484
-4.386142	akuyona	-0.4013397
-4.562233	akuyovunyelwa	-0.3010181
-4.562233	akuyukuba	-0.3010181
-4.562233	akuzange	-0.2252484
-4.562233	akwa	-0.2252484
-4.562233	akwazi	-0.3010062
-4.562233	akwaziwe	-0.3010181
-4.562233	akwenqabe	-0.3010181
-4.562233	akwenqatshwa	-0.3010181
-4.562233	akwenze	-0.2252484
-4.386142	akwethulwe	-0.4771034
-4.386142	ala	-0.4013397
-4.562233	alahle	-0.2252484
-4.562233	alahlekelwe	-0.3010181
-4.386142	alale	-0.4013397
-4.562233	alalele	-0.2252484
-4.562233	alalelwe	-0.3010181
-4.562233	alamula	-0.3010181
-4.562233	alande	-0.2252484
-4.164293	alandelayo	-0.3676851
-4.386142	alandele	-0.4771034
-4.562233	alangazelele	-0.3010181
-4.562233	alapha	-0.2252484
-4.562233	alawula	-0.2252484
-4.562233	alawulwa	-0.2252484
-4.386142	alayeze	-0.2874194
-4.386142	alekene	-0.2874194
-4.562233	alelo	-0.3010181
-4.562233	alengosi	-0.2252484
-4.562233	alethwe	-0.2252484
-4.562233	alexander	-0.3010181
-4.562233	aleyo	-0.3010181
-4.562233	alibazise	-0.2252484
-4.562233	alibonakalayo	-0.3010181
-4.562233	alibuzanga	-0.3010181
-4.562233	alifuni	-0.3010181
-4.562233	alikhokhe	-0.3010181
-4.386142	alinasibophezelo	-0.4771034
-4.562233	alinde	-0.2252484
-4.562233	alingalinganiswe	-0.2252484
-4.386142	alinganayo	-0.2874194
-4.562233	alingane	-0.3010181
-4.562233	alinganiselwe	-0.2252484
-4.562233	aliphethe	-0.3010181
-4.562233	aliphezulu	-0.3010181
-4.562233	aliphuze	-0.3010181
-4.562233	aliqede	-0.2252484
-4.562233	alisekho	-0.3010181
-4.386142	aliselincane	-0.2874194
-4.562233	alizwa	-0.3010181
-4.562233	allied	-0.3010181
-4.562233	alo	-0.2252484
-4.562233	alokho	-0.2252484
-4.562233	alokhu	-0.3010181
-4.562233	alokishi	-0.3010181
-4.562233	aloko	-0.3010181
-4.562233	alokothe	-0.3010181
-4.562233	alokoze	-0.3010181
-4.562233	alotshiwe	-0.2252484
-4.562233	alowo	-0.2252484
-4.562233	aludingi	-0.3010181
-4.562233	aluhambi	-0.3010181
-4.562233	aluhlaza	-0.3010181
-4.562233	aluhlaziye	-0.3010181
-4.386142	alukhuni	-0.2874194
-4.562233	alukwazi	-0.3010181
-4.562233	alula	-0.3010181
-4.562233	aluluhle	-0.3009288
-4.562233	alumbene	-0.2252484
-4.562233	alunabo	-0.2252484
-4.562233	aluncele	-0.3010181
-4.562233	alungele	-0.2252484
-4.562233	alungene	-0.3010181
-4.386142	alungise	-0.4013397
-4.562233	alungiswe	-0.3010181
-4.562233	alunguze	-0.2252484
-4.562233	aluthole	-0.3010181
-4.562233	aluyona	-0.3010181
-4.562233	ama	-0.3010181
-4.562233	amaafidavithi	-0.3010121
-4.562233	amaakhawunti	-0.3010002
-4.386142	amabala	-0.4771034
-4.562233	amabalazwe	-0.2252484
-4.562233	amabandla	-0.3010181
-4.562233	amabanga	-0.2252484
-4.562233	amabangeni	-0.3010181
-4.562233	amabele	-0.2252484
-4.562233	amabhajethi	-0.3010181
-4.562233	amabhakede	-0.3010181
-4.562233	amabhande	-0.3010181
-4.562233	amabhange	-0.3010181
-4.562233	amabhantshi	-0.3010181
-4.386142	amabhasi	-0.4771034
-4.562233	amabhawodi	-0.3010181
-4.386142	amabhayisikili	-0.2874194
-4.562233	amabhengele	-0.3010181
-4.562233	amabheyi	-0.3010181
-4.562233	amabhilidi	-0.2252484
-4.562233	amabhizinisi	-0.2252484
-4.562233	amabhodi	-0.2252484
-4.562233	amabhodlela	-0.3010181
-4.562233	amabhodwe	-0.2252484
-4.386142	amabhokisi	-0.4013397
-4.386142	amabhokobhoko	-0.4013397
-4.562233	amabhuku	-0.3010181
-4.562233	amabhuleki	-0.2252484
-4.562233	amabhulukwe	-0.2252484
-4.562233	amabhuzi	-0.3010181
-4.164293	amabili	-0.2251208
-4.386142	amabizinisi	-0.2874194
-4.562233	amabizo	-0.3010181
-4.562233	amabutho	-0.3010062
-4.562233	amacala	-0.3010181
-4.562233	amachaphazela	-0.3010181
-4.562233	amachweba	-0.2252484
-4.562233	amacode	-0.3010181
-4.562233	amaculo	-0.3010181
-4.562233	amadada	-0.3010181
-4.386142	amadala	-0.4013397
-4.562233	amadami	-0.3010002
-4.562233	amadamu	-0.3010181
-4.562233	amadangala	-0.3010181
-4.562233	amade	-0.3010181
-4.562233	amadela	-0.2252484
-4.562233	amadixa	-0.3010181
-4.386142	amadlozi	-0.4771034
-4.562233	amadoda	-0.3010181
-4.562233	amadodana	-0.2252484
-3.784082	amadokhumende	-0.4819436
-4.562233	amadolo	-0.3010181
-4.386142	amadolobha	-0.4771034
-4.562233	amaduku	-0.3010181
-4.562233	amadwala	-0.3010181
-4.562233	amafa	-0.3010181
-4.562233	amafasitela	-0.2252484
-4.562233	amafilimi	-0.3010181
-4.562233	amafilimu	-0.3010181
-3.821871	amafomu	-0.2483822
-4.562233	amafoni	-0.3010181
-4.562233	amagalelo	-0.3010181
-3.960173	amagama	-0.2436898
-4.562233	amagatsha	-0.3010181
-4.562233	amagceke	-0.3010181
-4.562233	amagciwane	-0.2252484
-4.164293	amagrafu	-0.4013183
-4.164293	amagugu	-0.2089718
-4.562233	amagumbi	-0.3010181
-4.562233	amagundane	-0.3010181
-4.562233	amagwababa	-0.3010181
-4.562233	amagxathu	-0.3010121
-4.562233	amaheheba	-0.3010181
-4.562233	amahembe	-0.3010181
-4.164293	amahhovisi	-0.2921527
-4.562233	amahindu	-0.2252484
-4.386142	amahlandla	-0.4013397
-4.562233	amahlanga	-0.3010181
-4.562233	amahlanu	-0.3010181
-4.562233	amahlathi	-0.2252484
-4.562233	amahlaya	-0.3010181
-4.562233	amahle	-0.3010181
-4.562233	amahlebezi	-0.3010181
-4.562233	amahlombe	-0.2252484
-4.562233	amahlule	-0.3010181
-4.562233	amaholo	-0.2252484
-4.386142	amahomoni	-0.2874194
-4.261203	amahora	-0.3221442
-4.562233	amahovisi	-0.3010181
-4.562233	amajaji	-0.2252484
-4.562233	amajazi	-0.2252484
-4.562233	amakamelo	-0.3010181
-4.562233	amakati	-0.3010181
-4.562233	amakha	-0.3010181
-4.562233	amakhabethe	-0.2874378
-4.562233	amakhadi	-0.3010181
-4.562233	amakhala	-0.2252484
-4.562233	amakhaladi	-0.3010181
-4.562233	amakhalori	-0.2252484
-4.562233	amakhambi	-0.3010181
-4.562233	amakhanani	-0.2252484
-4.562233	amakhanda	-0.2252484
-4.562233	amakhandlela	-0.2252484
-4.562233	amakhani	-0.2252484
-4.562233	amakhansela	-0.3010181
-4.562233	amakhasimede	-0.3010181
-4.386142	amakhasimende	-0.2252271
-4.562233	amakhaya	-0.2252484
-4.562233	amakhemikhali	-0.3010181
-4.562233	amakhethini	-0.3010181
-4.562233	amakhikhi	-0.3010181
-4.562233	amakhizane	-0.3010181
-4.562233	amakhodi	-0.3010181
-4.562233	amakhomishani	-0.2252484
-4.386142	amakhondomu	-0.2874194
-4.386142	amakhono	-0.2252129
-4.562233	amakhonsathi	-0.3010181
-4.562233	amakhontinethi	-0.2252484
-4.085112	amakhophi	-0.3384798
-4.562233	amakhosi	-0.2252484
-4.562233	amakhosikazi	-0.3010181
-4.386142	amakhulu	-0.4013397
-4.562233	amaklasi	-0.2252484
-4.562233	amakomidi	-0.3010181
-4.562233	amakomishana	-0.3010181
-4.562233	amakontileka	-0.3010181
-4.562233	amalambu	-0.3010181
-4.562233	amalangabi	-0.2252484
-4.562233	amalayisensi	-0.3010181
-4.562233	amalele	-0.2252484
-4.562233	amaletha	-0.2252484
-4.386142	amaliba	-0.4013397
-4.562233	amalinge	-0.3010181
-4.562233	amalinkeji	-0.3010181
-4.386142	amaloli	-0.2874194
-4.085112	amalunga	-0.2600949
-4.386142	amalungelo	-0.3009943
-4.562233	amalungiselelo	-0.2252484
-4.562233	amalungu	-0.3010181
-4.386142	amamaki	-0.3010062
-4.562233	amamelika	-0.2252484
-4.562233	amaminerali	-0.3010181
-4.562233	amaminithi	-0.3010181
-4.562233	amamitha	-0.3010181
-4.562233	amamnyuziyemu	-0.3010181
-4.386142	amanamba	-0.2090159
-4.562233	amanani	-0.2252484
-4.164293	amandla	-0.4013254
-4.562233	amandlovu	-0.3010181
-4.386142	amane	-0.4013397
-4.386142	amanga	-0.2252342
-4.562233	amangaki	-0.3010181
-4.562233	amangale	-0.3010181
-4.562233	amangisi	-0.2252484
-4.261203	amaningi	-0.3009824
-4.562233	amankonyane	-0.3010181
-4.562233	amanothi	-0.3010181
-4.386142	amanpo	-0.2874194
-4.562233	amanqe	-0.3010181
-4.562233	amantombazane	-0.3010181
-4.562233	amantshontsho	-0.3010181
-4.386142	amanxeba	-0.2874194
-4.562233	amanxusa	-0.3010181
-4.386142	amanyathelo	-0.4013397
-4.562233	amanye	-0.3010121
-4.562233	amanyundululu	-0.3010181
-4.562233	amanzi	-0.2252484
-4.562233	amapaki	-0.3010181
-4.562233	amapasi	-0.3010181
-4.562233	amapayipi	-0.3010181
-4.562233	amaphakethe	-0.2252484
-4.085112	amaphepha	-0.2762733
-4.562233	amaphephandaba	-0.2252484
-4.386142	amapheshana	-0.4771034
-4.386142	amapheshi	-0.4771034
-4.562233	amaphethelo	-0.3010181
-4.562233	amaphini	-0.3010181
-4.562233	amaphosta	-0.3010181
-4.562233	amaphoyinti	-0.2252484
-4.386142	amaphoyisa	-0.4013397
-4.562233	amaphrotheni	-0.3010181
-4.018165	amaphutha	-0.3850852
-4.386142	amaphuzu	-0.2252271
-4.562233	amapiki	-0.3010181
-4.562233	amaplant	-0.3010121
-4.562233	amaposi	-0.3010181
-4.562233	amaprojekthi	-0.2874378
-4.562233	amaprotheni	-0.2252484
-4.562233	amapulani	-0.3010181
-4.562233	amaqabuqabu	-0.3010121
-4.562233	amaqanda	-0.3010181
-4.386142	amaqatha	-0.4771034
-4.562233	amaqembu	-0.3010181
-4.562233	amaqhinga	-0.2252484
-4.562233	amaqhubu	-0.3010181
-4.562233	amaqhwa	-0.3010181
-4.386142	amaqiniso	-0.4013397
-4.562233	amarandi	-0.3010181
-4.261203	amarekhodi	-0.287401
-4.261203	amasamanisi	-0.3979102
-4.386142	amasampula	-0.2874194
-4.562233	amasana	-0.3010181
-4.562233	amaseli	-0.3010181
-4.562233	amasevisi	-0.3010181
-4.562233	amasha	-0.3010181
-4.562233	amashadi	-0.2252484
-4.562233	amasheduli	-0.2252484
-4.562233	amasheke	-0.3010121
-4.085112	amasheya	-0.3339252
-4.562233	amashezi	-0.2252484
-4.562233	amashidi	-0.2252484
-4.562233	amashumi	-0.3010181
-4.562233	amashushu	-0.3010181
-4.562233	amasiko	-0.3010181
-4.562233	amasimu	-0.2252484
-4.386142	amasmme	-0.4013397
-4.562233	amasokisi	-0.3010181
-4.562233	amasondo	-0.3010181
-4.562233	amasonto	-0.3010181
-4.562233	amasoseji	-0.3010181
-4.386142	amasosha	-0.4013397
-4.562233	amasotsha	-0.3010181
-4.261203	amasu	-0.3979102
-4.562233	amatafula	-0.2252484
-4.386142	amatayitela	-0.2874194
-4.562233	amateki	-0.3010181
-4.562233	amatekisi	-0.3010181
-4.562233	amatemu	-0.2252484
-4.562233	amathanga	-0.3010181
-4.085112	amathathu	-0.3500949
-4.562233	amathayi	-0.2252484
-4.562233	amathe	-0.2252484
-4.562233	amathebuli	-0.3010181
-4.261203	amathekisthi	-0.3843171
-4.562233	amatheksthi	-0.3010181
-4.386142	amathemba	-0.4013397
-4.562233	amathenda	-0.3010181
-4.562233	amatherifi	-0.3010181
-4.562233	amathimba	-0.3010181
-4.562233	amathini	-0.3010181
-4.562233	amathishu	-0.3010181
-4.562233	amathuba	-0.3010181
-4.562233	amathuluzi	-0.3010181
-4.562233	amathumbu	-0.3010181
-4.562233	amathuna	-0.2252484
-4.562233	amathunzi	-0.3010181
-4.562233	amatikiti	-0.3010181
-4.562233	amatshe	-0.3010181
-4.562233	amatulo	-0.3010181
-4.562233	amavidiyo	-0.2252484
-4.261203	amaviki	-0.2252058
-4.562233	amavivi	-0.2252484
-4.562233	amavolontiya	-0.3010121
-4.562233	amavoti	-0.3010121
-4.386142	amawayini	-0.4013397
-4.562233	amawigi	-0.2252484
-4.261203	amawili	-0.3843171
-4.386142	amawolintshi	-0.4013397
-4.562233	amaxhama	-0.3010181
-4.562233	amaxhosa	-0.3010181
-4.562233	amayunithi	-0.2252484
-4.018165	amazinga	-0.3058304
-4.562233	amazinyo	-0.3010181
-3.960173	amazwe	-0.2436678
-4.562233	amazwi	-0.3010181
-4.386142	ambalwa	-0.2252342
-4.386142	ambandaze	-0.4771034
-4.562233	ambhalise	-0.3010181
-4.562233	ambhekabheke	-0.2252484
-4.386142	ambhule	-0.4013397
-4.562233	ambuke	-0.3010181
-4.562233	ambulense	-0.2252484
-4.562233	ambulensi	-0.3010181
-4.386142	ambuze	-0.2874194
-4.562233	ame	-0.2252484
-4.562233	amehlise	-0.3010181
-4.562233	amehlo	-0.3010181
-4.562233	amela	-0.2252484
-4.562233	amele	-0.3010181
-4.386142	amelwe	-0.4770915
-4.386142	amemeze	-0.2874194
-4.562233	america	-0.2252484
-3.386142	american	-0.4163134
-4.562233	amfakele	-0.2252484
-4.562233	amgqolozele	-0.3010181
-4.562233	amhlophe	-0.2252484
-4.562233	amhluphayo	-0.3010181
-4.562233	amile	-0.3010181
-4.562233	amileyo	-0.3010181
-4.562233	aminofi	-0.2252484
-4.562233	aminofo	-0.2252484
-4.562233	amiselwe	-0.3010181
-4.562233	amisiwe	-0.3010181
-4.386142	amiswe	-0.4013397
-4.562233	amnandi	-0.2252484
-4.562233	amnyama	-0.3010181
-4.562233	amqembu	-0.3010181
-4.562233	amthuku	-0.3010181
-4.562233	amtshele	-0.2252484
-4.562233	amugile	-0.3010181
-4.386142	amukela	-0.287401
-4.562233	amukelekile	-0.3010121
-4.562233	amukelwe	-0.3010181
-4.386142	amuse	-0.4013397
-4.562233	amuva	-0.3010121
-4.562233	amvikele	-0.3010181
-4.386142	amyalele	-0.4013397
-4.562233	an	-0.3010181
-4.562233	ana	-0.2252484
-4.562233	anabantwana	-0.2252484
-4.562233	anabo	-0.3010181
-4.386142	analeyo	-0.4771034
-4.562233	anamagobolondo	-0.3010181
-4.261203	anamakhemikhali	-0.3843233
-4.562233	anamandla	-0.3010181
-4.562233	anamanzi	-0.3010181
-4.562233	anamasondo	-0.3010181
-4.261203	ananele	-0.3978983
-4.386142	anawo	-0.4771034
-4.562233	anc	-0.3010181
-4.562233	ancishiselwe	-0.3010181
-4.562233	ancishwe	-0.3010181
-4.261203	and	-0.3221442
-4.562233	andaweni	-0.3010181
-4.562233	anduba	-0.3010181
-4.562233	andukuba	-0.3010181
-4.386142	ane	-0.4013397
-4.386142	anemininingwane	-0.2874194
-4.562233	anemiqondo	-0.2252484
-4.562233	anempilo	-0.3010181
-4.562233	anenkothe	-0.2252484
-4.562233	anentshisekelo	-0.3010181
-4.562233	anesibopho	-0.3010181
-4.386142	anethuba	-0.2874194
-4.562233	anezimoto	-0.3010181
-4.562233	anezindlela	-0.2252484
-4.562233	anezinhlelo	-0.3010181
-4.562233	angaba	-0.2252484
-4.562233	angabamba	-0.2252484
-4.562233	angabantu	-0.3010181
-4.562233	angabe	-0.3010181
-4.386142	angabhekisa	-0.2874194
-4.562233	angabiza	-0.2252484
-4.562233	angabonisi	-0.3010181
-4.562233	angabuye	-0.3010181
-4.562233	angacela	-0.2874378
-4.386142	angafinyeleleki	-0.4013397
-4.562233	angafinyezwa	-0.2252484
-4.562233	angagcwala	-0.3010181
-4.562233	angagobhoza	-0.3010181
-4.562233	angahambela	-0.2252484
-4.562233	angahambi	-0.2252484
-4.562233	angahlali	-0.2252484
-4.386142	angahlangabezani	-0.2874194
-4.386142	angahle	-0.4771034
-4.562233	angahlukani	-0.3010181
-4.562233	angajabula	-0.3010181
-4.386142	angakhetha	-0.4770856
-4.562233	angakhipha	-0.2252484
-4.562233	angakhokhiswa	-0.3010181
-4.562233	angakhulelwa	-0.3010181
-4.562233	angakuvumela	-0.2252484
-4.386142	angakwazi	-0.2874194
-4.562233	angalethwa	-0.3010181
-4.562233	angalingani	-0.2252484
-4.562233	angalinganiselwa	-0.2252484
-4.562233	angalokothi	-0.3010181
-4.562233	angama	-0.3010181
-4.562233	angamabhuzi	-0.2252484
-4.562233	angamalunga	-0.2874378
-4.562233	angamanqumuza	-0.3010181
-4.562233	angamashumi	-0.2252484
-4.562233	angamazi	-0.3010181
-4.261203	angamelwa	-0.2874071
-4.562233	angamphathisi	-0.3010181
-4.562233	angamphenduli	-0.3010181
-4.562233	angamusa	-0.3010181
-4.261203	anganena	-0.3843233
-4.562233	anganibusisa	-0.3010181
-4.562233	anganquma	-0.3010181
-4.562233	angaphakathi	-0.3010181
-4.562233	angaphandle	-0.3010062
-4.562233	angaphansi	-0.2252484
-4.562233	angaphatheki	-0.2252484
-4.386142	angaphelelwa	-0.4013397
-4.562233	angaphezu	-0.3010181
-4.562233	angaphezulu	-0.2252484
-4.562233	angaphumelelanga	-0.3010181
-4.562233	angaqhamuka	-0.3010181
-4.562233	angaqhubeka	-0.3010121
-4.562233	angaqoka	-0.3010181
-4.562233	angasebenzisa	-0.2252484
-4.562233	angasetshenziswa	-0.3010181
-4.386142	angasetshenziswanga	-0.4013397
-4.562233	angasho	-0.3010181
-4.562233	angasibona	-0.3010181
-4.562233	angasifaka	-0.2252484
-4.562233	angasithola	-0.2252484
-4.562233	angasusa	-0.2252484
-4.562233	angathathwa	-0.3010181
-4.386142	angathi	-0.3009943
-4.562233	angathini	-0.2252484
-4.562233	angathintana	-0.3010181
-4.562233	angathokozisi	-0.2252484
-4.562233	angatholakala	-0.2252484
-4.562233	angatshela	-0.2252484
-4.562233	angavoti	-0.3010181
-4.386142	angavuma	-0.2874194
-4.562233	angavumelana	-0.2252484
-4.562233	angaya	-0.3010181
-4.562233	angayibeka	-0.3010181
-4.386142	angayibona	-0.4771034
-4.562233	angayizolo	-0.3010181
-4.386142	angaze	-0.2874194
-4.562233	angazi	-0.2252484
-4.562233	angazibandakanya	-0.3010181
-4.562233	angazibandakanyi	-0.3010181
-4.562233	angazisa	-0.2252484
-4.261203	angaziwa	-0.5262784
-4.562233	angcolile	-0.2252484
-4.562233	angcoliswe	-0.2252484
-4.562233	angegibele	-0.3010181
-4.562233	angejwayelekile	-0.3010181
-4.562233	angeke	-0.3009943
-4.562233	angekhe	-0.3010181
-4.562233	angempela	-0.3010181
-4.562233	angena	-0.3010181
-4.562233	angenabufakazi	-0.3010181
-4.562233	angenalutho	-0.2252484
-4.562233	angenambhalo	-0.3010181
-4.562233	angenazitshalo	-0.3010181
-4.386142	angene	-0.2874194
-4.562233	angengaphezulu	-0.3010181
-4.562233	angengene	-0.3010181
-4.562233	angenqaba	-0.3010181
-4.261203	angenza	-0.3217047
-4.562233	angenzi	-0.2252484
-4.562233	angesabi	-0.3010181
-4.562233	angeyena	-0.3010181
-4.562233	angezansi	-0.3010181
-4.386142	angeze	-0.4771034
-4.562233	angibaleki	-0.3010181
-4.562233	angibayazi	-0.3010181
-4.562233	angiboni	-0.3010181
-4.562233	angifuni	-0.3010181
-4.562233	angihambisani	-0.3010181
-4.562233	angikayiboni	-0.3010181
-4.562233	angikhathali	-0.3010181
-4.562233	angikubalekeli	-0.3010181
-4.386142	angikubikelangaukuthi	-0.2874194
-4.562233	angikubophe	-0.3010181
-4.386142	angikwazi	-0.4013397
-4.562233	angikwesabi	-0.3010181
-4.562233	angilwe	-0.3010181
-4.562233	angimfonele	-0.3010181
-4.562233	anginalutho	-0.3010181
-4.562233	anginandaba	-0.3010181
-4.562233	anginayo	-0.2252484
-4.386142	angingabe	-0.4771034
-4.562233	angintuli	-0.2252484
-4.562233	angiphuthume	-0.3010181
-4.562233	angiqhubeke	-0.2252484
-4.562233	angiqonde	-0.3010181
-4.562233	angisafune	-0.3010181
-4.562233	angisakhumbuli	-0.3010181
-4.386142	angisale	-0.4013397
-4.562233	angisayi	-0.3010181
-4.562233	angisayiphathi	-0.2252484
-4.562233	angishongo	-0.2252484
-4.562233	angithandi	-0.3010181
-4.562233	angithole	-0.3010181
-4.562233	angivumi	-0.3010181
-4.562233	angiyeke	-0.3010181
-4.562233	angizange	-0.2252484
-4.562233	angizenzisi	-0.3010181
-4.562233	angizuba	-0.3010181
-4.562233	angizuhlupheka	-0.2252484
-4.386142	angomakhwapheni	-0.4771034
-4.562233	angophumasilwe	-0.3010181
-4.562233	anguenhlawulo	-0.3010181
-4.562233	ani	-0.2252484
-4.562233	anifuni	-0.3010181
-4.562233	anika	-0.3010002
-4.562233	anike	-0.2252484
-4.261203	anikeze	-0.3221442
-4.562233	anikezelwe	-0.3010181
-4.562233	anikeziwe	-0.3010181
-4.562233	animals	-0.2252484
-4.562233	anisela	-0.3010181
-4.562233	anje	-0.3010181
-4.386142	anjena	-0.4013397
-4.386142	anjengebalazwe	-0.2090159
-4.562233	annual	-0.3010181
-4.562233	annuity	-0.3010062
-4.562233	anobungozi	-0.2252484
-4.562233	anolwazi	-0.2252484
-4.562233	anomdlandla	-0.3010181
-4.562233	anomlando	-0.3010181
-4.562233	anomsebenzi	-0.3010181
-4.386142	anomthelela	-0.4013397
-4.562233	anophawu	-0.3010121
-4.562233	anqabe	-0.2252484
-4.562233	anqume	-0.2252484
-4.562233	anqunyiwe	-0.2252484
-4.562233	anqunywe	-0.3010181
-4.562233	antolo	-0.2252484
-4.562233	anyakaza	-0.3010181
-4.562233	anyiphe	-0.2874378
-4.562233	anytime	-0.3010181
-4.562233	anzulu	-0.3010181
-4.562233	apequlule	-0.3010181
-4.386142	aphakade	-0.4771034
-4.562233	aphakamise	-0.3010181
-4.562233	aphambane	-0.3010181
-4.562233	aphambili	-0.2252484
-4.562233	aphangalala	-0.2252484
-4.386142	aphansi	-0.3010062
-4.562233	aphaphame	-0.3010181
-4.261203	aphathekayo	-0.3221442
-4.562233	aphathelene	-0.3010181
-4.562233	aphathwe	-0.3010181
-4.386142	aphelele	-0.2252342
-4.386142	aphelile	-0.2874194
-4.386142	aphendule	-0.2250641
-4.562233	aphethe	-0.3010181
-4.261203	aphethwe	-0.5262784
-4.164293	aphezulu	-0.6231884
-4.386142	aphikisane	-0.4013397
-4.562233	aphilayo	-0.2252484
-4.386142	aphile	-0.2251917
-4.562233	aphinde	-0.3010181
-4.562233	aphinyiswayo	-0.3010181
-4.386142	aphisane	-0.4771034
-4.562233	aphula	-0.3010181
-4.562233	aphule	-0.3010181
-4.386142	aphuma	-0.2251846
-4.562233	apostolic	-0.3009824
-4.386142	application	-0.3009943
-4.386142	april	-0.4013397
-4.562233	aprm	-0.3010181
-4.386142	aqala	-0.2874194
-4.562233	aqale	-0.3010181
-4.562233	aqalise	-0.3010181
-4.562233	aqandule	-0.3010181
-4.562233	aqanjiwe	-0.2252484
-4.562233	aqaphe	-0.2252484
-4.386142	aqashise	-0.2874194
-4.562233	aqashwe	-0.2252484
-4.562233	aqatshuliswe	-0.3010181
-4.562233	aqede	-0.2252484
-4.562233	aqhathanise	-0.3010062
-4.562233	aqinile	-0.2252484
-4.562233	aqinisekisa	-0.3010181
-4.562233	aqinisekise	-0.3010181
-4.261203	aqinisekisiwe	-0.6020303
-4.386142	aqonde	-0.4013397
-4.562233	aqondile	-0.3010181
-4.562233	aqondiswe	-0.2252484
-4.562233	aqondwe	-0.3010181
-4.562233	aqukethwe	-0.3010181
-4.562233	arab	-0.3010181
-4.562233	arabhu	-0.3010181
-4.562233	arana	-0.2252484
-4.164293	area	-0.2249011
-4.562233	aribe	-0.2252484
-4.562233	ariya	-0.2252484
-4.562233	arizona	-0.3009943
-4.562233	armed	-0.2252484
-4.562233	armenian	-0.3010181
-4.261203	army	-0.3220946
-4.261203	arts	-0.22522
-4.386142	asabalalise	-0.4013397
-4.562233	asale	-0.3010181
-4.261203	asamdlalo	-0.5262784
-4.386142	asanda	-0.4771034
-4.386142	asanele	-0.4013397
-4.562233	asangabe	-0.3010181
-4.386142	asathuthuka	-0.4771034
-4.562233	asatshiswe	-0.3010181
-4.261203	asayine	-0.3008693
-4.562233	asayinile	-0.3010181
-4.562233	asayiniwe	-0.2252484
-4.386142	asayinwe	-0.4013397
-4.164293	ase	-0.292096
-4.386142	aseafrika	-0.2252342
-4.562233	asebefake	-0.2252484
-4.562233	asebehlabele	-0.2252484
-4.562233	asebekhulile	-0.3010181
-4.562233	asebenesipiliyoni	-0.3010181
-4.562233	asebenza	-0.2252484
-4.562233	asebenzayo	-0.3010181
-4.562233	asebenze	-0.3010181
-4.261203	asebenzela	-0.3979102
-4.386142	asebenzisa	-0.2252342
-4.261203	asebenzise	-0.32213
-4.562233	asebephethwe	-0.3010181
-4.562233	asebeshonile	-0.3010181
-4.562233	asebevele	-0.3010181
-4.562233	asebevuthiwe	-0.3010181
-4.562233	asebhange	-0.3010181
-4.562233	asechwebeni	-0.2252484
-4.386142	aseduzane	-0.2874194
-4.562233	aseduze	-0.2252484
-4.562233	asefane	-0.3010181
-4.562233	asegugile	-0.3010181
-4.562233	asehle	-0.3010181
-4.562233	asekelayo	-0.2252484
-4.562233	asekele	-0.3009943
-4.562233	asekelwe	-0.3010181
-4.562233	asekhaya	-0.3010181
-4.562233	asekhona	-0.3010181
-4.562233	asekufundile	-0.3010181
-4.562233	asekwa	-0.2252484
-4.386142	aselivini	-0.4771034
-4.562233	aseluhlaza	-0.3010181
-4.562233	asemakhaya	-0.3010181
-4.386142	asemaphandleni	-0.4771034
-4.562233	asemazingeni	-0.3010121
-4.562233	asembusweni	-0.3010121
-4.562233	asemgqeni	-0.3010181
-4.261203	asemqoka	-0.3221442
-4.562233	asemthethweni	-0.2252484
-4.386142	asemukeli	-0.4013397
-4.562233	asendiya	-0.3010181
-4.562233	asendleleni	-0.3010181
-4.386142	asendlunkulu	-0.4771034
-4.562233	asenesikhathi	-0.2252484
-3.863263	aseningizimu	-0.6643472
-4.562233	asenza	-0.2252484
-4.562233	asenze	-0.2252484
-4.562233	asephansi	-0.3010181
-4.562233	asephepheni	-0.2252484
-4.562233	aseqhulwini	-0.2252484
-4.562233	aseqophelweni	-0.3010181
-4.562233	aseshwe	-0.3010181
-4.386142	asesifundeni	-0.4771034
-4.562233	asethuthukile	-0.3010181
-4.562233	asetshenziselwa	-0.3010181
-4.386142	asetshenzisiwe	-0.4013397
-4.386142	asetshenziswa	-0.3009943
-4.562233	asetshenziswayo	-0.3010181
-4.386142	asetshenziswe	-0.3009169
-4.562233	asetshenziwe	-0.3010181
-4.562233	asevele	-0.3010121
-4.562233	aseyayiphothula	-0.2252484
-4.386142	asezandleni	-0.4013397
-4.562233	asezifundazweni	-0.3010181
-4.562233	asezifundeni	-0.2252484
-4.562233	asezimakethe	-0.3010181
-4.562233	asezingeni	-0.3010181
-4.562233	asezinkampanini	-0.2252484
-4.562233	ashade	-0.3010181
-4.562233	ashakenaze	-0.2252484
-4.562233	ashaya	-0.3010181
-4.562233	ashayele	-0.3010181
-4.562233	ashdown	-0.3010181
-4.562233	ashesha	-0.2874378
-4.562233	asheshe	-0.3010181
-4.562233	ashikenaze	-0.2252484
-4.562233	ashikeneza	-0.2252484
-4.562233	ashintshe	-0.2252484
-4.562233	ashisayo	-0.3010181
-4.562233	asho	-0.3010181
-4.562233	ashona	-0.2252484
-4.562233	ashubisa	-0.3010181
-4.562233	asian	-0.3009943
-4.562233	asibone	-0.3010181
-4.562233	asiboshwe	-0.2252484
-4.562233	asidayise	-0.3010181
-4.562233	asifake	-0.3010002
-4.562233	asigomele	-0.3010181
-4.261203	asikho	-0.3009705
-4.562233	asikhulumi	-0.3010181
-4.562233	asikutholi	-0.3010181
-4.386142	asikwazi	-0.4013397
-4.562233	asimphoqi	-0.3010181
-4.562233	asinakho	-0.3010181
-4.562233	asinalo	-0.3009705
-4.562233	asingabi	-0.2252484
-4.562233	asingakanani	-0.3010181
-4.562233	asingeke	-0.3010181
-4.562233	asinikezwa	-0.2252484
-4.562233	asinjengoba	-0.2252484
-4.562233	asiqhubeke	-0.2252484
-4.562233	asisabonwa	-0.2252484
-4.386142	asisebenzi	-0.2090159
-4.562233	asishiye	-0.2252484
-4.386142	asisizane	-0.2874194
-4.562233	asithathe	-0.3010181
-4.386142	asitholile	-0.4013397
-4.562233	asiyuma	-0.2252484
-4.562233	asizange	-0.3010181
-4.562233	asizayo	-0.3010181
-4.562233	aso	-0.3010181
-4.562233	asolundi	-0.3010181
-4.562233	asondele	-0.3010181
-4.562233	asosiyesheni	-0.2874378
-4.562233	asoze	-0.3010181
-4.562233	assaf	-0.3010181
-4.261203	association	-0.5262784
-4.562233	astera	-0.2252484
-4.562233	asuke	-0.3010181
-4.386142	asukume	-0.4771034
-4.562233	asungule	-0.2252484
-4.164293	asuse	-0.3543232
-4.386142	asuselwa	-0.4013397
-4.562233	asuswa	-0.3010181
-4.562233	ath	-0.3010002
-4.562233	athatha	-0.2252484
-4.562233	athathe	-0.3010181
-4.562233	athathwa	-0.3010181
-4.562233	athathwe	-0.3010181
-4.562233	athe	-0.3010181
-4.562233	athi	-0.3010181
-4.562233	athile	-0.3010181
-4.562233	athintane	-0.3010181
-4.386142	athintekayo	-0.2252342
-4.562233	athize	-0.3010181
-4.164293	atholakala	-0.367828
-4.562233	atholakale	-0.3010181
-4.386142	athole	-0.3007681
-4.562233	atholwe	-0.3010181
-4.562233	athombile	-0.3010181
-4.562233	athomu	-0.2252484
-4.386142	athoswe	-0.2874194
-4.562233	athumele	-0.2252484
-4.386142	athunyelwa	-0.4771034
-4.562233	athunyelwe	-0.3010181
-4.164293	athuthukile	-0.4013254
-4.562233	athuthukisa	-0.3010181
-4.164293	athuthukiselwa	-0.4634984
-4.562233	athuthukiswe	-0.2252484
-4.386142	atomic	-0.4771034
-4.562233	august	-0.2252484
-4.386142	australian	-0.3009109
-4.562233	ava	-0.2252484
-4.562233	avakashele	-0.3010181
-4.562233	avale	-0.3010181
-4.562233	avalelana	-0.3010181
-4.562233	avaliwe	-0.3010181
-4.386142	avalwe	-0.4771034
-4.386142	avame	-0.3009645
-4.261203	avela	-0.2090012
-4.164293	avele	-0.6989284
-4.386142	average	-0.3010062
-4.562233	aveza	-0.2252484
-4.562233	avezwa	-0.3010181
-4.562233	avikela	-0.2252484
-4.386142	avikelwe	-0.2251987
-4.562233	avote	-0.3010181
-4.562233	avuke	-0.2252484
-4.386142	avule	-0.4771034
-4.562233	avuleka	-0.3010181
-4.085112	avume	-0.3501304
-4.562233	avunyelwe	-0.3010181
-4.562233	awabizi	-0.2252484
-4.562233	awafice	-0.3010181
-4.562233	awahlangani	-0.3010181
-4.562233	awakhe	-0.2874378
-4.562233	awakhokhelwa	-0.2252484
-4.562233	awalethe	-0.3010181
-4.562233	awamele	-0.3010121
-4.562233	awangasese	-0.3010181
-4.164293	award	-0.4770855
-4.386142	awards	-0.2874194
-4.386142	awasebenzise	-0.4769665
-4.562233	awathola	-0.3010181
-4.386142	awatholakali	-0.2874194
-4.562233	awatholwa	-0.3010181
-4.562233	awavumelekile	-0.3010181
-4.562233	awazi	-0.3010181
-4.562233	awe	-0.2874378
-4.562233	awedluliseki	-0.2252484
-4.562233	awekho	-0.3010181
-4.562233	awela	-0.2252484
-4.562233	awengane	-0.2252484
-4.386142	awenzayo	-0.4013397
-4.562233	awile	-0.2252484
-4.386142	awo	-0.3009526
-4.562233	awokuqala	-0.2252484
-4.562233	awomasipala	-0.3010181
-4.562233	awombutho	-0.3010181
-4.562233	awoselwa	-0.2252484
-4.386142	awowonke	-0.2090159
-4.562233	awu	-0.2252484
-4.562233	awubasunduzi	-0.2252484
-4.562233	awube	-0.3010181
-4.386142	awubhalisile	-0.2874194
-4.562233	awubheke	-0.3010181
-4.562233	awubona	-0.2874378
-4.562233	awubucwazicwazi	-0.2252484
-4.562233	awudidizelisa	-0.3010181
-4.562233	awufuni	-0.3010181
-4.562233	awuhlabe	-0.3010181
-4.562233	awukakangazi	-0.2252484
-4.562233	awuke	-0.3010181
-4.562233	awukhiphi	-0.2252484
-4.386142	awukho	-0.2874194
-4.562233	awukwazi	-0.3010181
-4.562233	awumboni	-0.2252484
-4.562233	awumcebo	-0.2252484
-4.386142	awumphumela	-0.2874194
-4.562233	awunoni	-0.2252484
-4.562233	awuphawu	-0.3010181
-4.562233	awuphephile	-0.2252484
-4.562233	awuqashelwe	-0.3010181
-4.386142	awusahleli	-0.2874194
-4.386142	awusalaleli	-0.4771034
-4.562233	awusebenzi	-0.3010181
-4.562233	awusingethe	-0.3010181
-4.562233	awuthi	-0.3010181
-4.562233	awuthunyelwa	-0.3010181
-4.562233	awutshele	-0.3010181
-4.562233	awuyukuba	-0.3010181
-4.562233	awuzange	-0.3010181
-4.562233	awuzibhale	-0.2252484
-4.562233	awuzwa	-0.2252484
-4.562233	axhume	-0.3010121
-4.562233	axoxe	-0.3010121
-4.562233	ay	-0.3010181
-4.562233	ayaba	-0.2252484
-4.386142	ayabandanyeka	-0.4013397
-4.562233	ayahlangana	-0.3010181
-4.562233	ayahlonzwa	-0.3010121
-4.562233	ayakhohlwa	-0.3010181
-4.562233	ayalingana	-0.2252484
-4.562233	ayalungiswa	-0.2252484
-4.386142	ayananyathiselwa	-0.4771034
-4.562233	ayashintshashintsha	-0.3010181
-4.562233	ayatholakala	-0.3010181
-4.562233	ayaziyo	-0.3010181
-4.562233	aye	-0.2252484
-4.562233	ayebanikelele	-0.3010181
-4.562233	ayebuye	-0.3010181
-4.562233	ayebuzwe	-0.3010181
-4.562233	ayedinga	-0.3010181
-4.562233	ayefika	-0.2252484
-4.562233	ayekade	-0.3010181
-4.386142	ayeke	-0.4771034
-4.562233	ayekhethelwe	-0.3010181
-4.386142	ayekuhashula	-0.4771034
-4.562233	ayekuso	-0.3010181
-4.562233	ayeliciphizile	-0.2252484
-4.562233	ayeliphethe	-0.3010181
-4.562233	ayemabili	-0.2252484
-4.562233	ayemithende	-0.3010181
-4.562233	ayenakho	-0.3010121
-4.261203	ayenencazelo	-0.3843233
-4.386142	ayengakubuziwe	-0.4013397
-4.562233	ayengasawulindele	-0.3010181
-4.562233	ayengekho	-0.3010181
-4.562233	ayenyathela	-0.2252484
-4.386142	ayephakeme	-0.4013397
-4.562233	ayephezu	-0.2252484
-4.562233	ayesanda	-0.3010181
-4.562233	ayesecwecwiwe	-0.3010181
-4.562233	ayesehlengezela	-0.3010181
-4.562233	ayeseke	-0.3010181
-4.562233	ayeseyiqalile	-0.2252484
-4.562233	ayesisebenzisa	-0.2252484
-4.562233	ayesithunyelelwe	-0.2252484
-4.261203	ayewashintsha	-0.3843233
-4.562233	ayewathandiswa	-0.3010181
-4.562233	ayewukela	-0.3010181
-4.562233	ayewuvuthela	-0.2252484
-4.562233	ayeyihola	-0.3010181
-4.562233	ayezibuzwa	-0.3010181
-4.562233	ayezifica	-0.2252484
-4.562233	ayezithola	-0.3010181
-4.562233	ayezomsiza	-0.3010181
-4.386142	ayezomthwala	-0.2874194
-4.562233	ayezozihlala	-0.3010181
-4.562233	ayezwakala	-0.3010181
-4.562233	ayi	-0.3010181
-4.562233	ayibale	-0.3010181
-4.562233	ayibange	-0.2252484
-4.562233	ayibhalile	-0.3010181
-4.562233	ayibhaliwe	-0.3009288
-4.562233	ayibhekisise	-0.3010181
-4.386142	ayibona	-0.4771034
-4.562233	ayibonakalisa	-0.3010181
-4.562233	ayibophe	-0.2252484
-4.562233	ayidlalile	-0.3010181
-4.562233	ayidle	-0.2874378
-4.562233	ayifane	-0.3010062
-4.386142	ayigcine	-0.4771034
-4.562233	ayigwinyisi	-0.3010181
-4.562233	ayihoshe	-0.3010181
-4.562233	ayikhiphe	-0.3010181
-4.562233	ayikho	-0.2252484
-4.562233	ayikhokhe	-0.3010181
-4.562233	ayikhokhelwa	-0.2252484
-4.562233	ayikhona	-0.3009883
-4.562233	ayikhuphule	-0.2252484
-4.562233	ayikwazi	-0.3010181
-4.562233	ayilahlwa	-0.2252484
-4.562233	ayilethe	-0.3010181
-4.562233	ayilungise	-0.2252484
-4.562233	ayinakuvulwa	-0.2252484
-4.562233	ayinamalungiselelo	-0.3010181
-4.562233	ayingangaye	-0.3010181
-4.386142	ayingeke	-0.4771034
-4.386142	ayinikwe	-0.2874194
-4.386142	ayinoma	-0.4013397
-4.386142	ayiphumelelanga	-0.4771034
-4.562233	ayiphumuli	-0.3010181
-4.562233	ayiqashisi	-0.3010181
-4.562233	ayiqhube	-0.3010181
-4.562233	ayiqiniso	-0.2252484
-4.562233	ayisekho	-0.2252484
-4.562233	ayisenamsebenzi	-0.2252484
-4.562233	ayishaye	-0.3010181
-4.562233	ayishiyagalolunye	-0.3010181
-4.562233	ayishiye	-0.2252484
-4.562233	ayisi	-0.2874378
-4.562233	ayisibalo	-0.2252484
-4.562233	ayisishagalombili	-0.2252484
-4.562233	ayisishiyagalolunye	-0.3010181
-4.386142	ayisishiyagalombili	-0.4771034
-4.562233	ayisishiyangalombili	-0.2252484
-4.386142	ayisithupha	-0.2252342
-4.562233	ayisoze	-0.3010181
-4.386142	ayithathe	-0.4771034
-4.562233	ayivami	-0.2252484
-4.562233	ayiwisile	-0.3010181
-4.562233	ayizange	-0.3010181
-4.562233	ayizibonelo	-0.3010181
-4.562233	ayizicucu	-0.2252484
-4.562233	ayizwa	-0.3010181
-4.562233	ayo	-0.3009169
-4.562233	ayoba	-0.3010181
-4.562233	ayobakhonibisa	-0.3010181
-4.562233	ayobonana	-0.3010181
-4.562233	ayohlelwa	-0.3010181
-4.562233	ayohlinzekwa	-0.3010181
-4.562233	ayohlola	-0.3010181
-4.562233	ayokhethwa	-0.2252484
-4.562233	ayokuma	-0.3010181
-4.562233	ayokweseka	-0.2252484
-4.562233	ayokwethulwa	-0.2252484
-4.562233	ayolamula	-0.3010181
-4.386142	ayoni	-0.4771034
-4.386142	ayophela	-0.4013397
-4.562233	ayosibhalisa	-0.3010181
-4.261203	ayothulwa	-0.3843233
-4.562233	ayovuleka	-0.3010181
-4.562233	ayozama	-0.2252484
-4.386142	ayoze	-0.4013397
-4.562233	azakinikezwa	-0.2252484
-4.562233	azalwa	-0.3010181
-4.562233	azame	-0.3010181
-4.562233	azani	-0.2252484
-4.562233	aze	-0.2252484
-4.386142	azenzele	-0.4013397
-4.562233	azenzile	-0.3010181
-4.562233	azesula	-0.2252484
-4.562233	azibi	-0.3010181
-4.386142	azibona	-0.4013397
-4.386142	azibonele	-0.4013397
-4.562233	azibophezele	-0.3010181
-4.562233	azibuke	-0.2252484
-4.562233	azibulali	-0.3010181
-4.562233	azicabangela	-0.3010181
-4.562233	azidedele	-0.2252484
-4.562233	azidingi	-0.3010181
-4.562233	azifundi	-0.2252484
-4.386142	azigculise	-0.2874194
-4.562233	azigqugquzelwa	-0.2252484
-4.386142	aziguquki	-0.4771034
-4.562233	azijike	-0.2252484
-4.562233	azikhahlelwanga	-0.3010181
-4.562233	azikhathalele	-0.2252484
-4.562233	azikhiphe	-0.2252484
-4.386142	azikho	-0.2252342
-4.562233	azilandela	-0.2252484
-4.562233	azimele	-0.3010181
-4.562233	azimisela	-0.2252484
-4.562233	azimisele	-0.2252484
-4.562233	azinazo	-0.3010181
-4.562233	azingeni	-0.2252484
-4.386142	azinikelayo	-0.4013397
-4.562233	aziqh	-0.3010181
-4.386142	azise	-0.4013397
-4.562233	azisebenzi	-0.3010181
-4.562233	azisole	-0.2252484
-4.562233	aziswe	-0.3010181
-4.386142	azithele	-0.4771034
-4.562233	azithibe	-0.3010181
-4.562233	azitholele	-0.3010181
-4.562233	aziveli	-0.2252484
-4.562233	azivunyelwanga	-0.3010181
-4.562233	aziwa	-0.3010181
-4.562233	azizwe	-0.3010181
-4.386142	azo	-0.2874194
-4.386142	azoba	-0.4771034
-4.562233	azobe	-0.3010181
-4.562233	azochela	-0.2252484
-4.562233	azodala	-0.2252484
-4.562233	azodaleka	-0.3010181
-4.562233	azofinyeleleka	-0.3010181
-4.562233	azogaywa	-0.2252484
-4.562233	azokufundwa	-0.2252484
-4.562233	azokusetshenziswa	-0.3010181
-4.562233	azokwakha	-0.3010181
-4.562233	azokwazi	-0.3010181
-4.562233	azombandakanya	-0.3010181
-4.386142	azombona	-0.4013397
-4.562233	azongidinga	-0.3010181
-4.562233	azophuma	-0.2252484
-4.562233	azosebenza	-0.3009943
-4.562233	azotholwa	-0.2252484
-4.562233	azoyiwela	-0.3010181
-4.562233	azozidundubala	-0.2252484
-4.562233	azoziphendulela	-0.3010181
-4.562233	azozisebenzisa	-0.2252484
-4.562233	azumeke	-0.3010181
-3.960173	b	-0.3634802
-4.261203	ba	-0.3979102
-4.562233	baba	-0.3010181
-4.562233	bababambe	-0.3010181
-4.562233	bababulale	-0.3010181
-4.562233	babacwiye	-0.2252484
-4.562233	babafundise	-0.2252484
-4.386142	babagibeli	-0.2874194
-4.562233	babahlinzeki	-0.3010181
-4.562233	babambe	-0.3010181
-4.562233	babambi	-0.3010181
-4.386142	babambisane	-0.4013397
-4.562233	babandanyeka	-0.2252484
-4.562233	babantu	-0.3010181
-4.562233	babasebenzi	-0.3010181
-4.261203	babathe	-0.5262784
-4.562233	babe	-0.3010181
-4.562233	babebona	-0.2874378
-4.562233	babebuye	-0.3010181
-4.562233	babehamba	-0.2252484
-4.562233	babekhala	-0.3010181
-4.562233	babekhombisa	-0.2252484
-4.562233	babelokhu	-0.3010181
-4.562233	babematasatasa	-0.3010181
-4.562233	babemlibele	-0.2252484
-4.386142	babenalo	-0.2874194
-4.562233	babenelungelo	-0.3010121
-4.386142	babenga	-0.2874194
-4.562233	babengakwazi	-0.3010181
-4.562233	babengaqeqeshekanga	-0.3010181
-4.562233	babengathandani	-0.3010181
-4.562233	babengelinye	-0.3010181
-4.562233	babengontanga	-0.3010181
-4.562233	babephika	-0.3010181
-4.562233	babesahleka	-0.2252484
-4.562233	babeshintshana	-0.2252484
-4.562233	babethembisene	-0.3010181
-4.562233	babezijabulele	-0.3010181
-4.386142	babezindaba	-0.2090159
-4.562233	babhale	-0.3010181
-4.562233	babhekana	-0.3010062
-4.562233	babhekane	-0.3010181
-4.386142	babheke	-0.4013397
-4.386142	babhekelele	-0.2874194
-4.562233	babi	-0.3010121
-4.562233	babingelelana	-0.3010181
-4.562233	babo	-0.3010181
-4.386142	babona	-0.4013397
-4.562233	babone	-0.3010181
-4.562233	babonise	-0.3010181
-4.562233	babukane	-0.3010181
-4.562233	babuke	-0.2252484
-4.562233	babukeka	-0.3010181
-4.386142	babulawe	-0.4771034
-4.562233	babungabuzwa	-0.2252484
-4.562233	babunolwazi	-0.3010181
-4.562233	babuphikiswa	-0.3010181
-4.562233	babuqale	-0.2252484
-4.562233	babuvele	-0.3010181
-4.562233	babuye	-0.3010181
-4.562233	bacathula	-0.3010181
-4.562233	bacela	-0.2252484
-4.562233	bachaza	-0.2252484
-4.562233	bachitha	-0.2252484
-4.562233	bacindezelekile	-0.3010181
-4.562233	bade	-0.3010181
-4.562233	badlala	-0.3010181
-4.562233	badle	-0.3010181
-4.562233	badonswa	-0.3010181
-4.386142	baduduzane	-0.2874194
-4.562233	bafa	-0.2252484
-4.562233	bafake	-0.3010181
-4.386142	bafakwa	-0.4013397
-4.562233	bafakwe	-0.3010181
-4.562233	bafana	-0.2252484
-4.562233	bafe	-0.2252484
-4.562233	bafi	-0.3010181
-4.562233	bafike	-0.3010181
-4.562233	bafinyelele	-0.3010181
-4.562233	bafowethu	-0.3010181
-4.562233	bafukule	-0.3010181
-4.562233	bafunda	-0.3010181
-4.562233	bafunde	-0.3010181
-4.562233	bafundisise	-0.3009288
-4.562233	bafune	-0.2252484
-4.562233	bagasela	-0.3010181
-4.562233	bagcina	-0.3010181
-4.562233	bagcine	-0.2252484
-4.562233	bagcwalise	-0.2252484
-4.562233	bagonana	-0.3010181
-4.386142	bahamba	-0.2874194
-4.562233	bahambela	-0.2252484
-4.562233	bahlabe	-0.2252484
-4.386142	bahlala	-0.4771034
-4.386142	bahlale	-0.4771034
-4.562233	bahlangabezane	-0.2252484
-4.562233	bahlangana	-0.3010181
-4.562233	bahlanganisa	-0.3010181
-4.386142	bahlaziye	-0.4771034
-4.562233	bahle	-0.3010181
-4.386142	bahlele	-0.4013397
-4.562233	bahlinzeka	-0.3010181
-4.562233	bahlinzeke	-0.3010181
-4.562233	bahlomula	-0.2252484
-4.562233	bahlomule	-0.3010181
-4.562233	bahoshule	-0.3010181
-4.562233	bajabula	-0.2252484
-4.562233	bajantshi	-0.3010181
-4.562233	bajike	-0.3010181
-4.386142	baka	-0.3010002
-4.562233	bakagesi	-0.3010181
-4.562233	bakahamoni	-0.2252484
-4.562233	bakahamori	-0.2252484
-4.562233	bakahulumeni	-0.2252484
-4.562233	bakamahori	-0.2252484
-4.562233	bakamasipala	-0.3010181
-4.386142	bakamdladla	-0.2874194
-4.386142	bake	-0.2874194
-4.562233	bakha	-0.2252484
-4.562233	bakhala	-0.3010002
-4.562233	bakhathazekile	-0.3010121
-4.562233	bakhe	-0.3010181
-4.562233	bakhethe	-0.2252484
-4.562233	bakhipha	-0.3009526
-4.386142	bakho	-0.2252342
-4.562233	bakhohlise	-0.2252484
-4.562233	bakhokhe	-0.3009883
-4.562233	bakhombise	-0.2252484
-4.562233	bakhona	-0.3010181
-4.261203	bakhonjiswe	-0.5262784
-4.562233	bakhule	-0.3010181
-4.386142	bakhululekile	-0.4013397
-4.562233	bakhumbule	-0.2252484
-4.562233	bakhuphukela	-0.3010181
-4.562233	bakhuthaze	-0.2252484
-4.562233	bakhuthazwe	-0.2252484
-4.562233	bakithi	-0.3010181
-4.562233	bakubiza	-0.3010181
-4.386142	bakugcabe	-0.2874194
-4.562233	bakugqume	-0.2252484
-4.562233	bakuhambise	-0.3010181
-4.562233	bakuhole	-0.3010181
-4.562233	bakuleli	-0.3010181
-4.386142	bakulesi	-0.4771034
-4.562233	bakusize	-0.3010181
-4.562233	bakuthola	-0.3010181
-4.562233	bakutshope	-0.3010181
-4.562233	bakwa	-0.3010181
-4.562233	bakwadani	-0.2252484
-4.562233	bakwamanase	-0.2252484
-4.562233	bakwamanaso	-0.2252484
-4.562233	bakwanafateli	-0.2252484
-4.562233	bakwanafetali	-0.2252484
-4.562233	bakwandwandwe	-0.3010181
-4.562233	bakwavukuzithathe	-0.3010181
-4.018165	bakwazi	-0.2664639
-4.562233	bakwethu	-0.2252484
-4.562233	bala	-0.3010181
-4.386142	balabo	-0.4771034
-4.562233	balahla	-0.3010181
-4.562233	balale	-0.3010181
-4.562233	balalele	-0.2252484
-4.562233	balamakomidi	-0.3010121
-4.562233	balandele	-0.3010181
-4.562233	balapha	-0.3009288
-4.386142	balawo	-0.4771034
-4.562233	bale	-0.2252484
-4.562233	balekelela	-0.3010181
-4.562233	balele	-0.3010181
-4.562233	balelo	-0.3010181
-4.562233	balengosi	-0.3010181
-4.562233	balenqubomgomo	-0.3010181
-4.562233	balesizwe	-0.3010181
-4.562233	baleyo	-0.3010121
-4.562233	balezi	-0.3010181
-4.562233	balezo	-0.2252484
-4.562233	balibuka	-0.3010181
-4.562233	balihlamuka	-0.3010181
-4.562233	balilibala	-0.3010181
-4.261203	balilizela	-0.3843233
-4.562233	balinanele	-0.3010181
-4.562233	balindele	-0.3010181
-4.562233	balithola	-0.2252484
-4.562233	balokho	-0.3010181
-4.386142	balokhu	-0.4771034
-4.562233	baloluhlobo	-0.2252484
-4.562233	balowo	-0.3010181
-4.562233	baluhambise	-0.3010181
-4.562233	balungise	-0.2252484
-4.562233	balungiselele	-0.3010181
-4.562233	baluthole	-0.2252484
-4.562233	bama	-0.3010181
-4.562233	bamabhizinisi	-0.3010181
-4.562233	bamabhuku	-0.3010181
-4.562233	bamacebo	-0.2252484
-4.562233	bamachweba	-0.3010181
-4.261203	bamadolobha	-0.3843171
-4.562233	bamagama	-0.2252484
-4.562233	bamahhovisi	-0.3010062
-4.562233	bamakhansela	-0.2252484
-4.261203	bamakhono	-0.5262784
-4.562233	bamalayisense	-0.3010181
-4.562233	bamalungu	-0.2252484
-4.562233	bamandla	-0.3010181
-4.562233	bamanethiwekhi	-0.3010181
-4.386142	bamanzi	-0.4013397
-4.386142	bamaphoyisa	-0.4013397
-4.562233	bamapulazi	-0.2252484
-4.562233	bamaroma	-0.3010181
-4.562233	bamasheya	-0.3010181
-4.562233	bamasiko	-0.3010181
-4.562233	bamasu	-0.2252484
-4.386142	bamatekisi	-0.2252342
-4.386142	bamathimba	-0.4013397
-4.386142	bamazwe	-0.3009169
-4.386142	bame	-0.2874194
-4.562233	bami	-0.3010181
-4.562233	bamnikezile	-0.2252484
-4.386142	bamphuce	-0.4771034
-4.386142	bamqukule	-0.4771034
-4.562233	bamshaya	-0.3010181
-4.562233	bamshintsha	-0.3010181
-4.562233	bamthatha	-0.2252484
-4.562233	bamukele	-0.3010181
-4.562233	bamusa	-0.2252484
-4.562233	bamxilongile	-0.3010181
-4.562233	banamandla	-0.2252484
-4.386142	bancintisane	-0.2874194
-4.562233	bandla	-0.3010181
-4.261203	banegunya	-0.3843233
-4.562233	banelungelo	-0.3010062
-4.562233	banemali	-0.3010181
-4.562233	banemfanelo	-0.3010181
-4.562233	banendima	-0.2252484
-4.562233	banendlela	-0.2252484
-4.562233	banesibopho	-0.3010181
-4.261203	banezezele	-0.6020362
-4.562233	banezindlela	-0.2252484
-4.562233	bangaba	-0.3009943
-4.562233	bangabaleka	-0.3010181
-4.562233	bangabaxhumanisi	-0.3010181
-4.562233	bangabe	-0.3010181
-4.386142	bangabi	-0.2874194
-4.562233	bangabonakali	-0.2252484
-4.562233	bangabuye	-0.2252484
-4.562233	bangadlala	-0.3010181
-4.562233	bangafika	-0.2252484
-4.386142	bangakhi	-0.4013397
-4.562233	bangakhiphi	-0.2252484
-4.562233	bangaki	-0.3010181
-4.562233	bangakunika	-0.2252484
-4.562233	bangakweluleka	-0.2874378
-4.562233	bangalela	-0.3010181
-4.386142	bangalithola	-0.4013397
-4.562233	bangangenwa	-0.2252484
-4.562233	bangaphakathi	-0.3010181
-4.386142	bangaphandle	-0.4771034
-4.562233	bangaphinde	-0.2252484
-4.386142	bangase	-0.2874194
-4.562233	bangasebenzisa	-0.3010181
-4.386142	bangasese	-0.4013397
-4.562233	bangavinjwa	-0.3010181
-4.562233	bangavumelana	-0.3010181
-4.386142	bangayinuki	-0.4771034
-4.562233	bangaze	-0.3010181
-4.562233	bangazibandakanyi	-0.3010121
-4.562233	bangazikhethela	-0.3010181
-4.562233	bangena	-0.3010181
-4.562233	bangeneleleohlelweni	-0.3010181
-4.386142	bangeniswa	-0.4771034
-4.562233	bangenwa	-0.2252484
-4.386142	bangenza	-0.4013397
-4.562233	bangichitha	-0.2252484
-4.562233	bangiqonde	-0.2252484
-4.562233	bangishiye	-0.2252484
-4.562233	bangomuso	-0.3010181
-4.562233	bangunaza	-0.3010181
-4.562233	bani	-0.3010181
-4.386142	banikane	-0.4771034
-4.562233	banikele	-0.3010181
-4.562233	banikeze	-0.3010181
-4.562233	banikezwa	-0.2252484
-4.562233	banikwa	-0.2252484
-4.386142	banikwe	-0.2874194
-4.562233	banjani	-0.2252484
-4.562233	banokuletha	-0.3010181
-4.562233	banokuziqhayisa	-0.3010181
-4.562233	banoma	-0.3010121
-4.562233	banomdlandla	-0.3010181
-4.386142	banomphelo	-0.4013397
-4.562233	banomsebenzi	-0.2252484
-4.261203	banonembeza	-0.3843233
-4.562233	bantabami	-0.2252484
-4.562233	bantshinge	-0.3010181
-4.562233	bantu	-0.3010181
-4.562233	bantwana	-0.2252484
-4.562233	banxuswa	-0.3010181
-4.562233	banyana	-0.2252484
-4.562233	baobab	-0.2252484
-4.562233	baphakamise	-0.3010181
-4.562233	baphatha	-0.3010181
-4.562233	baphathe	-0.3010181
-4.164293	baphathi	-0.4770796
-4.562233	baphazamiseka	-0.3010181
-4.562233	baphenduka	-0.3010181
-4.562233	baphendule	-0.3010181
-4.562233	baphikiswa	-0.2252484
-4.562233	baphile	-0.3010181
-4.562233	baphinde	-0.3010181
-4.562233	baphonse	-0.3010181
-4.562233	baphuma	-0.2252484
-4.562233	baphume	-0.2252484
-4.562233	baphumelela	-0.3010181
-4.562233	baphuphe	-0.2252484
-4.386142	baphuthume	-0.2874194
-4.562233	baphuza	-0.2252484
-4.562233	bapitshika	-0.3010181
-4.562233	baqabulana	-0.3010181
-4.386142	baqala	-0.4013397
-4.562233	baqale	-0.3010181
-4.562233	baqalisa	-0.2252484
-4.562233	baqambe	-0.3010121
-4.562233	baqaphi	-0.2252484
-4.562233	baqeqeshelwe	-0.2252484
-4.562233	baqhubeke	-0.3010181
-4.562233	baqikelele	-0.2252484
-4.562233	baqinise	-0.3010181
-4.386142	baqinisile	-0.4771034
-4.562233	baqokwe	-0.3010181
-4.562233	baqonda	-0.3010181
-4.562233	baqonde	-0.2252484
-4.386142	baqoqe	-0.4771034
-4.562233	baqoqi	-0.3010181
-4.562233	barack	-0.3010181
-4.562233	basale	-0.3010181
-4.562233	basayina	-0.3010181
-4.386142	basayine	-0.3010062
-4.562233	basazitshala	-0.2252484
-4.562233	base	-0.2252484
-4.562233	baseafrika	-0.3010181
-4.085112	baseball	-0.276323
-4.562233	basebenza	-0.2252484
-4.562233	basebenze	-0.2252484
-4.386142	basebenzi	-0.4771034
-4.562233	basebenzise	-0.3010181
-4.562233	based	-0.2252484
-4.386142	basekhaya	-0.4013397
-4.562233	basele	-0.2252484
-4.562233	basemahhovisi	-0.3010181
-4.562233	basemajajini	-0.2252484
-4.386142	basemakhaya	-0.4771034
-4.562233	basemapungubwe	-0.2252484
-4.386142	basemazwe	-0.4013397
-4.562233	basemazweni	-0.3010181
-4.562233	basemgwaqeni	-0.3010181
-4.562233	basemzansi	-0.3010181
-4.386142	baseningizimu	-0.4769249
-4.562233	basepitoli	-0.3010181
-4.562233	bases	-0.2252484
-4.562233	basesithongweni	-0.3010181
-4.386142	baseswazini	-0.4013397
-4.562233	bashade	-0.3010181
-4.562233	bashaya	-0.3010181
-4.562233	bashilo	-0.3010181
-4.386142	bashiye	-0.2874194
-4.562233	basho	-0.3010181
-4.562233	bashude	-0.3010181
-4.562233	basibuke	-0.3010181
-4.562233	basinda	-0.3010181
-4.562233	basipha	-0.2252484
-4.562233	basiphonsa	-0.2252484
-4.562233	basisize	-0.3010181
-4.261203	basizwe	-0.6020362
-4.562233	baso	-0.2252484
-4.562233	basolile	-0.2252484
-4.562233	basondela	-0.3010181
-4.562233	basondelane	-0.2252484
-4.562233	basoshelwe	-0.3010181
-4.562233	basuka	-0.2252484
-4.562233	basuke	-0.3010181
-4.562233	bathatha	-0.3010181
-4.562233	bathathe	-0.2252484
-4.562233	bathathile	-0.3010181
-4.562233	bathathwa	-0.3010181
-4.562233	bathe	-0.2252484
-4.562233	bathi	-0.3010181
-4.562233	bathintana	-0.3010181
-4.562233	batho	-0.3010181
-4.562233	bathola	-0.2252484
-4.562233	bathole	-0.3010181
-4.386142	bathula	-0.4013397
-4.261203	bathule	-0.6020362
-4.562233	bathumele	-0.3010181
-4.562233	battery	-0.3010121
-4.562233	bavalelwa	-0.3010181
-4.562233	bavama	-0.3010181
-4.386142	bavame	-0.4013397
-4.562233	bavamise	-0.3010181
-4.386142	bavele	-0.4013397
-4.562233	baveza	-0.3010181
-4.562233	baveze	-0.3010121
-4.562233	bavivinywe	-0.2252484
-4.562233	bavukela	-0.2874378
-4.386142	bavuma	-0.4013397
-4.562233	bavume	-0.2252484
-4.386142	bavumelene	-0.2874194
-4.386142	bawaphike	-0.4771034
-4.562233	bawo	-0.2252484
-4.386142	bawumugqa	-0.4770856
-4.562233	bawuvula	-0.3010181
-4.562233	baxhawulana	-0.2252484
-4.562233	baxhumane	-0.3010181
-4.562233	baxhumene	-0.3010181
-4.562233	baxoxa	-0.2252484
-4.562233	baxoxe	-0.2252484
-4.562233	baxoxisane	-0.3010181
-4.386142	bay	-0.2252342
-4.562233	baya	-0.3010181
-4.562233	bayacacelwa	-0.3010181
-4.562233	bayafa	-0.3010181
-4.562233	bayafunda	-0.3010181
-4.386142	bayakhala	-0.4771034
-4.562233	bayakwazi	-0.3010181
-4.562233	bayalawulwa	-0.3010181
-4.562233	bayamazi	-0.2252484
-4.386142	bayamvula	-0.4771034
-4.562233	bayanxuswa	-0.2252484
-4.562233	bayaphila	-0.3010181
-4.562233	bayasebenza	-0.3010181
-4.562233	bayasulwa	-0.2252484
-4.562233	bayavama	-0.3010181
-4.562233	bayaye	-0.3010181
-4.562233	bayazimisa	-0.3010181
-4.562233	bayaziqhayisa	-0.3010181
-4.562233	baye	-0.3010181
-4.261203	bayede	-0.32213
-4.562233	bayehluka	-0.3010181
-4.562233	bayehluleka	-0.3010181
-4.562233	bayekele	-0.3010181
-4.562233	bayi	-0.2252484
-4.562233	bayingxenye	-0.3010181
-4.562233	bayiso	-0.3010181
-4.562233	bayithathe	-0.3010181
-4.562233	bayithole	-0.3010181
-4.562233	bayizinsika	-0.3010181
-4.562233	bayo	-0.2252484
-4.386142	bayobikela	-0.4771034
-4.562233	bayobukwa	-0.2252484
-4.562233	bayodinga	-0.3010181
-4.562233	bayodlulisela	-0.3010062
-4.386142	bayogcina	-0.4771034
-4.386142	bayogculiseka	-0.4013397
-4.562233	bayohlolwa	-0.2252484
-4.562233	bayokhuculula	-0.3010181
-4.562233	bayoku	-0.3010181
-4.386142	bayokwaziwa	-0.2874194
-4.562233	bayokwenza	-0.2252484
-4.562233	bayokwethula	-0.2252484
-4.562233	bayongifunda	-0.3010181
-4.562233	bayophikisana	-0.3010181
-4.562233	bayothathwa	-0.3010181
-4.562233	bayovuma	-0.2252484
-4.562233	bayovumelana	-0.2252484
-4.562233	bayovunyelwa	-0.2252484
-4.562233	bayozakhela	-0.2252484
-4.562233	bayozwisisa	-0.2252484
-4.562233	bazali	-0.3010181
-4.562233	bazama	-0.3010181
-4.562233	bazame	-0.3010181
-4.386142	bazathi	-0.4771034
-4.386142	baze	-0.2874194
-4.562233	bazibone	-0.2252484
-4.562233	bazibukele	-0.3010181
-4.562233	bazidle	-0.3010181
-4.562233	bazidonse	-0.3010181
-4.562233	bazifake	-0.3010181
-4.562233	bazigcine	-0.3010181
-4.562233	bazihlinzeke	-0.3010181
-4.562233	bazikhipha	-0.2252484
-4.386142	bazimisele	-0.4771034
-4.562233	bazinikela	-0.2252484
-4.562233	bazithathele	-0.2252484
-4.386142	bazithola	-0.4771034
-4.562233	bazithole	-0.3010181
-4.386142	bazithulisa	-0.4013397
-4.386142	bazizwa	-0.2874194
-4.562233	bazo	-0.3010181
-4.562233	bazobamba	-0.3010181
-4.562233	bazobe	-0.3010181
-4.562233	bazobuye	-0.2252484
-4.562233	bazobuyela	-0.3010181
-4.562233	bazofunda	-0.3010181
-4.562233	bazoheheka	-0.3010181
-4.562233	bazohola	-0.3010181
-4.562233	bazokhipha	-0.2252484
-4.562233	bazokusiza	-0.3010181
-4.562233	bazokwaziswa	-0.2252484
-4.562233	bazongilalela	-0.3010181
-4.562233	bazophendula	-0.2252484
-4.562233	bazophikisana	-0.2252484
-4.386142	bazoqasha	-0.2874194
-4.562233	bazoqhuba	-0.3010121
-4.562233	bazosebenzisa	-0.3008752
-4.562233	bazosiphatha	-0.2252484
-4.562233	bazothenga	-0.2252484
-4.562233	bazotholani	-0.2252484
-4.562233	bazozithola	-0.3010181
-4.562233	bazwane	-0.3010181
-4.562233	bbsdp	-0.3010181
-4.562233	be	-0.3010181
-4.562233	beadopshini	-0.3009109
-4.562233	beba	-0.2252484
-4.562233	bebambe	-0.2252484
-4.562233	bebe	-0.3010181
-4.562233	bebekaizimvo	-0.2252484
-4.562233	bebekuphi	-0.2252484
-4.562233	bebheka	-0.2252484
-4.562233	bebheke	-0.3010181
-4.562233	bebhizinisi	-0.2252484
-4.164293	bebhodi	-0.4013254
-4.562233	bebhukula	-0.3010181
-4.562233	bebona	-0.3010181
-4.562233	bebuka	-0.3010181
-4.562233	bebukana	-0.3010181
-4.562233	bebukeka	-0.3010181
-4.562233	becala	-0.2252484
-4.562233	becela	-0.3010181
-4.562233	becelwa	-0.3010181
-4.562233	bechweba	-0.3010181
-4.562233	becubungula	-0.3010181
-4.562233	becula	-0.3010181
-4.562233	bedamane	-0.3010181
-4.562233	bede	-0.3010181
-4.386142	bedobela	-0.4013397
-4.562233	bees	-0.2252484
-4.562233	befudumele	-0.3010181
-4.562233	befulege	-0.2252484
-4.562233	befuna	-0.3010181
-4.386142	befunda	-0.4771034
-4.562233	befunelwa	-0.3010181
-4.562233	begalelo	-0.2252484
-4.386142	begazi	-0.2252342
-4.562233	begunya	-0.3010181
-4.562233	beguquko	-0.3010181
-4.562233	begxumagxuma	-0.3010181
-4.562233	behamba	-0.2252484
-4.562233	behle	-0.3010181
-4.562233	behleka	-0.2252484
-4.562233	behlela	-0.3010181
-4.562233	behlezi	-0.2252484
-4.562233	behlola	-0.3010181
-4.562233	behlukile	-0.2252484
-4.562233	beka	-0.3010181
-4.562233	bekati	-0.2252484
-4.562233	beke	-0.3010181
-4.562233	bekhabhinethi	-0.3010181
-4.562233	bekhethelo	-0.2252484
-4.562233	bekhiphe	-0.3010181
-4.562233	bekhofi	-0.3010181
-4.562233	bekhula	-0.3010181
-4.386142	bekhulelwe	-0.4771034
-4.562233	bekikiza	-0.3010181
-4.562233	bekomiti	-0.2252484
-4.386142	bekuba	-0.4770975
-4.562233	bekubanda	-0.3010181
-4.562233	bekufanele	-0.3010181
-4.562233	bekuhlohle	-0.3010181
-4.562233	bekulinyazwa	-0.3010181
-4.562233	bekunezikhungo	-0.3010181
-4.562233	bekungabuye	-0.3010181
-4.562233	bekungeke	-0.3010181
-4.562233	bekungeyona	-0.2252484
-4.562233	bekungudadewabo	-0.3010181
-4.562233	bekungusayitsheni	-0.3010181
-4.562233	bekusho	-0.2252484
-4.562233	bekuyilawo	-0.3010181
-4.562233	bekuyimi	-0.3010181
-4.562233	bekuyinhloso	-0.2252484
-4.562233	bekuyinto	-0.3010181
-4.562233	bekuyona	-0.3010181
-4.562233	bekuzwa	-0.3010181
-4.562233	belala	-0.3010181
-4.386142	belana	-0.4771034
-4.562233	belandela	-0.3010181
-4.562233	belawula	-0.2252484
-4.562233	belengise	-0.3010181
-4.562233	belibele	-0.3010181
-4.562233	belindile	-0.2252484
-4.562233	belinganisa	-0.2252484
-4.562233	belishisa	-0.3010181
-4.562233	belokhu	-0.3010181
-4.386142	beloku	-0.2874194
-4.386142	belu	-0.2874194
-4.562233	belungu	-0.3009824
-4.562233	bembalekela	-0.3010181
-4.562233	bembandakanyeka	-0.2252484
-4.562233	bemboni	-0.3010181
-4.562233	bembuleleke	-0.3010181
-4.562233	beme	-0.3010121
-4.562233	bemelwe	-0.3010181
-4.164293	bemfundo	-0.4013183
-4.386142	bemhlalisa	-0.4013397
-4.562233	bemi	-0.2252484
-4.562233	bemibungu	-0.3010181
-4.562233	bemidlalo	-0.3010181
-4.386142	bemihlaba	-0.4013397
-4.562233	bemikhakha	-0.2252484
-4.562233	bemisebenzi	-0.2252484
-4.562233	bemishuwalense	-0.3010181
-4.386142	bemithetho	-0.4771034
-4.562233	bemoto	-0.3010181
-4.562233	bempahla	-0.3010181
-4.562233	bempi	-0.2252484
-4.386142	bempilo	-0.4013397
-4.562233	bemukelekile	-0.3010181
-4.562233	bemvelo	-0.3010181
-4.562233	benabazali	-0.3010181
-4.562233	benade	-0.2252484
-4.562233	benanele	-0.2252484
-4.562233	benani	-0.2252484
-4.562233	bencike	-0.2874378
-4.562233	bencinda	-0.3010181
-4.562233	bendalo	-0.3010181
-4.562233	bendawo	-0.3010181
-4.562233	bendiza	-0.3010181
-4.562233	bendlela	-0.3010181
-4.562233	bendlu	-0.3010181
-4.386142	bendluzula	-0.4013397
-4.562233	benecala	-0.3010181
-4.386142	benethuba	-0.4771034
-4.562233	bengabantunjengomuntu	-0.3010181
-4.562233	bengabasebenzi	-0.3010181
-4.562233	bengabuyi	-0.3010181
-4.562233	bengafanele	-0.2252484
-4.562233	bengakaqedi	-0.3010181
-4.562233	bengakuthokozeli	-0.3010181
-4.386142	bengakwazi	-0.4013397
-4.562233	benganikeza	-0.3008752
-4.386142	bengaphuzi	-0.4771034
-4.386142	bengazange	-0.2874194
-4.562233	bengaziqokanga	-0.3010181
-4.562233	bengebona	-0.2874378
-4.562233	bengekho	-0.2252484
-4.562233	bengenamvume	-0.3010181
-4.386142	bengenasiqiniseko	-0.4771034
-4.562233	bengeniso	-0.3010002
-4.562233	bengethembise	-0.2252484
-4.562233	bengifuna	-0.3010181
-4.562233	bengike	-0.3010181
-4.562233	bengilapha	-0.2252484
-4.562233	bengilokhu	-0.3010181
-4.562233	bengingafuni	-0.3010181
-4.562233	bengingakwazi	-0.3010181
-4.562233	bengisebenzisa	-0.2252484
-4.562233	bengizothi	-0.2874378
-4.562233	bengu	-0.2252484
-4.562233	bengumtshingo	-0.3010181
-4.562233	benhlangano	-0.3010181
-4.386142	benibelesele	-0.2874194
-4.562233	benika	-0.2252484
-4.562233	benkampani	-0.2252484
-4.562233	benkawu	-0.3010181
-4.562233	benkinga	-0.3010181
-4.386142	benkulumo	-0.4771034
-4.562233	benolwazi	-0.3010181
-4.562233	benombono	-0.3010181
-4.562233	benosonto	-0.2252484
-4.386142	benowakwakhe	-0.4013397
-4.562233	benqaba	-0.3010181
-4.386142	bentela	-0.3010062
-4.386142	bento	-0.2874194
-4.562233	bentuthuko	-0.3010181
-4.562233	benu	-0.2252484
-4.562233	benxa	-0.3010181
-4.562233	benyama	-0.3010181
-4.562233	benyamalele	-0.2252484
-4.562233	benyuka	-0.2252484
-4.562233	benza	-0.3010181
-4.562233	benze	-0.3010062
-4.562233	benzini	-0.2252484
-4.562233	benzisa	-0.2252484
-4.386142	bephila	-0.4013397
-4.562233	bephilile	-0.3010181
-4.386142	bephuma	-0.2874194
-4.562233	beqalaza	-0.3010181
-4.562233	beqembu	-0.3010181
-4.562233	beqhuba	-0.2252484
-4.562233	beqinisekisile	-0.2252484
-4.562233	beqophelo	-0.2252484
-4.386142	beqoqo	-0.2874194
-4.562233	besakhiwo	-0.3010181
-4.562233	besaphila	-0.3010181
-4.261203	besayense	-0.32213
-4.562233	bese	-0.2252484
-4.562233	besebenza	-0.3010181
-4.562233	besebenzisa	-0.3010181
-4.562233	besebenzisana	-0.3010181
-4.562233	besekhaya	-0.2252484
-4.386142	besemagcekeni	-0.4013397
-4.562233	besemkhakheni	-0.2252484
-4.562233	besenginqume	-0.3010181
-4.562233	besengizobonakala	-0.3010181
-4.562233	besezimpikweni	-0.3010181
-4.562233	beshade	-0.2252484
-4.562233	beshadile	-0.2252484
-4.562233	beshayela	-0.2252484
-4.386142	besi	-0.4771034
-4.562233	besibalo	-0.3010181
-4.562233	besicelo	-0.3010121
-4.562233	besidingo	-0.3010181
-4.386142	besidoda	-0.4013397
-4.562233	besifazane	-0.3010181
-4.562233	besifundazwe	-0.2252484
-4.562233	besigceme	-0.3010181
-4.562233	besigungu	-0.3010181
-4.164293	besihlathi	-0.6989402
-4.562233	besihleba	-0.2252484
-4.562233	besikhali	-0.3010181
-4.562233	besikhathi	-0.2252484
-4.562233	besikhungo	-0.3010181
-4.562233	besikhwama	-0.3010062
-4.562233	besiki	-0.2252484
-4.562233	besilisa	-0.3010181
-4.386142	besilwane	-0.4771034
-4.562233	besimo	-0.3010181
-4.562233	besindile	-0.3010181
-4.562233	besinqumo	-0.3010181
-4.562233	besintu	-0.2252484
-4.562233	besithi	-0.3010181
-4.562233	besiyobona	-0.3010181
-4.386142	besiza	-0.4013397
-4.562233	besizohlukana	-0.3010181
-4.562233	besizwa	-0.2252484
-4.562233	beskimu	-0.3010181
-4.562233	besuke	-0.3010181
-4.562233	bethandaza	-0.3010181
-4.562233	bethe	-0.2252484
-4.562233	bethi	-0.3010181
-4.261203	bethikithi	-0.2089939
-4.562233	bethola	-0.3010181
-4.562233	bethukile	-0.2252484
-4.562233	bethulwa	-0.2252484
-4.562233	bethweswe	-0.2252484
-4.386142	betinazele	-0.4013397
-4.562233	bevakashelana	-0.2252484
-4.562233	bevelaphi	-0.3010181
-4.562233	bewunqobile	-0.3010181
-4.261203	bexhumana	-0.5262784
-4.562233	bexoxa	-0.3010181
-4.562233	beya	-0.2252484
-4.562233	beyifutheke	-0.3010181
-4.562233	beyithanda	-0.3010121
-4.386142	beyizinkomo	-0.4771034
-4.386142	beza	-0.4771034
-4.261203	bezakhamuzi	-0.3843233
-4.562233	bezakhiwo	-0.2252484
-4.562233	bezame	-0.3010181
-4.562233	bezeki	-0.2252484
-4.562233	bezemfundo	-0.2252484
-4.562233	bezemidlalo	-0.2252484
-4.562233	bezempilo	-0.2252484
-4.562233	bezenhlala	-0.2252484
-4.562233	bezenhlalakahle	-0.3010181
-4.562233	bezenkolo	-0.3010181
-4.562233	bezezindlu	-0.2252484
-4.562233	bezibani	-0.3010181
-4.261203	bezicelo	-0.3008991
-4.562233	bezidakamizwa	-0.3010181
-4.562233	bezifunda	-0.3010181
-4.562233	bezihlahla	-0.3010181
-4.562233	bezikhalazo	-0.3010181
-4.562233	bezikhungo	-0.2252484
-4.386142	bezikhuthazi	-0.4771034
-4.562233	bezikhwama	-0.2252484
-4.562233	bezikole	-0.3010181
-4.562233	bezilimi	-0.2252484
-4.164293	bezilwane	-0.2759334
-4.562233	bezimali	-0.2252484
-4.562233	bezimboni	-0.3010181
-4.386142	bezimo	-0.2874194
-4.562233	bezimvume	-0.2252484
-4.562233	bezincwadi	-0.3010181
-4.261203	bezindawo	-0.2089939
-4.261203	bezindleko	-0.2873825
-4.562233	bezingosi	-0.3010181
-4.562233	bezinhlanga	-0.3010181
-4.562233	bezinhlangano	-0.2252484
-4.164293	bezinhlelo	-0.2759334
-4.562233	bezinjini	-0.2252484
-4.562233	bezinkantolo	-0.3010062
-4.562233	bezinkolo	-0.3010181
-4.386142	bezinkomo	-0.2874194
-4.386142	bezinqola	-0.4771034
-4.562233	bezinsiza	-0.3010181
-4.164293	bezinto	-0.4012688
-4.386142	bezinyawo	-0.2874194
-4.562233	bezinye	-0.3010181
-4.386142	beziqu	-0.4013397
-4.562233	bezithandani	-0.3010181
-4.562233	bezithombe	-0.3010181
-4.562233	bezitifiketi	-0.3010181
-4.562233	bezivande	-0.3010181
-4.562233	bezixoxela	-0.3010181
-4.562233	bezizinda	-0.2252484
-4.562233	bezizwa	-0.3010181
-4.562233	bezobuchwepheshe	-0.3010181
-4.562233	bezokwazi	-0.2252484
-4.562233	bezokwenza	-0.2252484
-4.386142	bezolwazi	-0.2874194
-4.562233	bezombusazwe	-0.2252484
-4.562233	bezomnotho	-0.3010181
-4.562233	bezomthetho	-0.2252484
-4.562233	bezozuza	-0.3010181
-4.562233	bezungeza	-0.3010181
-4.562233	bezwa	-0.3010181
-4.562233	bha	-0.2252484
-4.164293	bhala	-0.3679054
-4.261203	bheka	-0.3009824
-4.562233	bhekelela	-0.3010181
-4.562233	bhengu	-0.2252484
-4.562233	bhili	-0.3010181
-4.562233	bhizinisi	-0.3010181
-4.562233	bhodi	-0.3010121
-4.562233	bhukwana	-0.3010181
-4.562233	bhuqe	-0.3010181
-4.562233	bhuti	-0.2252484
-4.562233	bi	-0.3010181
-4.386142	bikela	-0.4771034
-4.562233	bikho	-0.2252484
-4.562233	bile	-0.3010181
-4.562233	bin	-0.3010181
-4.562233	binary	-0.3010181
-4.562233	binoni	-0.2252484
-4.562233	bleach	-0.3010181
-4.562233	blind	-0.2252484
-4.562233	bloc	-0.3009943
-4.562233	blue	-0.3010121
-4.562233	bo	-0.3010181
-3.863263	bobabili	-0.4359387
-4.562233	bobabiliabaxoxisanayo	-0.3010181
-4.562233	bobaili	-0.3010181
-4.562233	bobandlululo	-0.3010181
-4.562233	bobathathu	-0.2252484
-4.562233	bobuge	-0.3010181
-4.261203	bobuhlobo	-0.3979043
-4.562233	bobuholi	-0.2252484
-4.562233	bobulili	-0.3010181
-4.386142	bobunini	-0.4013397
-4.386142	bobuthi	-0.2874194
-4.562233	bodlame	-0.2252484
-4.562233	bodokotela	-0.2252484
-4.386142	bodwa	-0.4771034
-4.562233	bogesi	-0.2252484
-4.562233	bohlanga	-0.2874378
-4.562233	bohlelo	-0.2252484
-4.562233	bohulumeni	-0.3010181
-4.562233	bokhele	-0.3010181
-4.562233	bokubhala	-0.2252484
-4.562233	bokubuyisana	-0.3010181
-4.562233	bokudla	-0.2252484
-4.085112	bokufingqa	-0.4123151
-4.562233	bokufungisa	-0.2252484
-4.562233	bokugcina	-0.3010181
-4.562233	bokuhlela	-0.3009943
-4.562233	bokuhloniphana	-0.2252484
-4.562233	bokukhubazeka	-0.3010062
-4.562233	bokulinganiselwa	-0.3010181
-4.562233	bokungeke	-0.3010181
-4.562233	bokuphathwa	-0.2252484
-4.562233	bokuqala	-0.3010181
-4.562233	bokuqashana	-0.3010181
-4.562233	bokuqhunyelwa	-0.3010181
-4.562233	bokusansimbi	-0.2252484
-4.562233	bokusebenza	-0.2252484
-4.562233	bokusetshenziswa	-0.2874378
-4.562233	bokusiza	-0.3010002
-4.562233	bokuthatha	-0.2252484
-4.562233	bokuthenga	-0.2252484
-4.164293	bokuthi	-0.4012688
-4.562233	bokutholakala	-0.2252484
-4.562233	bokuvula	-0.3010181
-4.562233	bokuzinikela	-0.2252484
-4.386142	bolimi	-0.4771034
-4.562233	boluntu	-0.2252484
-4.562233	bolwazi	-0.3010181
-4.386142	bomasipala	-0.4771034
-4.562233	bombimbi	-0.3010181
-4.562233	bombuso	-0.3010181
-4.562233	bombutho	-0.3010181
-4.386142	bomfakela	-0.4013397
-4.562233	bomgogodla	-0.2252484
-4.562233	bomhlomulo	-0.2252484
-4.562233	bomkhakha	-0.3010181
-4.386142	bomkhandlu	-0.3010062
-4.562233	bomlinganisi	-0.2252484
-4.562233	bomndeni	-0.3010181
-4.562233	bomnyango	-0.3010062
-4.562233	bomphakathi	-0.2252484
-4.562233	bomphako	-0.2252484
-4.562233	bomqashi	-0.2252484
-4.562233	bomsebenzi	-0.2252484
-4.562233	bomthetho	-0.2252484
-4.562233	bomuntu	-0.3010181
-4.562233	bomuthi	-0.3010181
-4.386142	bomuzi	-0.4013397
-4.562233	bomyalelo	-0.2252484
-4.386142	bona	-0.4771034
-4.386142	bonana	-0.2874194
-4.562233	bondle	-0.2252484
-4.562233	bonga	-0.3010181
-4.562233	bonke	-0.3010002
-4.562233	book	-0.3010062
-4.562233	boshonile	-0.3010181
-4.562233	bosizo	-0.3010181
-4.562233	boston	-0.3010121
-4.562233	botswana	-0.3010181
-4.562233	box	-0.3010121
-4.562233	boy	-0.3010121
-4.562233	boyedwa	-0.2252484
-4.562233	breeders	-0.3010062
-4.562233	brendon	-0.3010181
-4.261203	british	-0.3008633
-4.562233	bronze	-0.3010181
-4.562233	broz	-0.3010181
-4.562233	bryant	-0.3010181
-4.562233	bubambisene	-0.2252484
-4.562233	bube	-0.2252484
-4.562233	bubude	-0.3010181
-4.562233	bubuningi	-0.3010181
-4.562233	bucace	-0.3010181
-4.562233	buccaneers	-0.2252484
-4.562233	bude	-0.3010181
-4.562233	budedengu	-0.2252484
-4.562233	budidiyelwe	-0.2252484
-4.562233	budlabha	-0.3010181
-4.562233	budlelwano	-0.3010181
-4.562233	buduze	-0.3010181
-4.562233	bufakazi	-0.3010181
-4.562233	bugayiwe	-0.3010181
-4.562233	buhamba	-0.3010181
-4.562233	buhlangane	-0.2252484
-4.562233	buhlanganisa	-0.3010181
-4.562233	buhlelembeka	-0.3010181
-4.562233	buhlobo	-0.3010181
-4.562233	bukafakazi	-0.3010181
-4.562233	bukankomo	-0.3010181
-4.386142	bukankulunkulu	-0.4013397
-4.562233	bukeka	-0.2252484
-4.562233	bukhethwe	-0.2252484
-4.386142	bukhipha	-0.4771034
-4.562233	bukhona	-0.2252484
-4.562233	bukhosi	-0.3010181
-4.562233	bukhosini	-0.2252484
-4.562233	bulala	-0.3010181
-4.562233	bulimaze	-0.3010181
-4.562233	bullets	-0.2252484
-4.562233	bulungiswe	-0.3010181
-4.562233	bulwane	-0.3010181
-4.562233	buma	-0.3010181
-4.562233	buncike	-0.3010181
-4.562233	bungachitheka	-0.3010181
-4.562233	bunganqanyulwa	-0.2252484
-4.562233	bungaphezulu	-0.2874378
-4.562233	bungena	-0.3010181
-4.562233	bungenza	-0.2252484
-4.562233	bungobohlobo	-0.3010181
-4.562233	bunzima	-0.3010181
-4.562233	buqamama	-0.3010181
-4.562233	buren	-0.2252484
-4.562233	busa	-0.3010181
-4.562233	busekelwe	-0.3010181
-4.164293	busezingeni	-0.4013042
-4.562233	busobala	-0.3010181
-4.562233	busuku	-0.3010181
-4.562233	buthaka	-0.3010181
-4.386142	buthakathaka	-0.2874194
-4.562233	buthintane	-0.3010181
-4.562233	butholakala	-0.3010181
-4.164293	buthule	-0.3543417
-4.562233	buvela	-0.2252484
-4.562233	buwumsuka	-0.3010181
-4.562233	buya	-0.2252484
-4.562233	buyanda	-0.3010181
-4.562233	buyashiyashiyana	-0.3010181
-4.562233	buyathintana	-0.3010181
-4.261203	buyekeza	-0.3842987
-4.386142	buyisakhiwo	-0.4771034
-4.562233	buyosetshenziswa	-0.3010181
-4.562233	buza	-0.3010181
-4.562233	buzani	-0.3010181
-4.562233	buzohlanganisa	-0.3010181
-4.386142	buzwiwa	-0.4771034
-4.261203	c	-0.2251633
-4.562233	caller	-0.3010181
-4.562233	cambridge	-0.3009943
-4.562233	camp	-0.3010181
-4.386142	card	-0.2252342
-4.018165	catholic	-0.3422977
-4.562233	catholics	-0.2252484
-4.562233	cbos	-0.3010181
-4.562233	ccma	-0.2252484
-4.261203	ccrd	-0.3843233
-4.562233	cd	-0.2252484
-4.562233	cdc	-0.2252484
-4.562233	cebo	-0.3010181
-4.562233	cela	-0.3010181
-4.562233	cele	-0.3010181
-4.562233	census	-0.2252484
-4.562233	center	-0.2252484
-4.386142	central	-0.3008395
-4.562233	centrally	-0.3010181
-4.562233	centre	-0.3010062
-4.562233	ceo	-0.3010181
-4.562233	cesi	-0.2252484
-4.562233	cha	-0.3010121
-4.085112	championship	-0.3501375
-4.562233	chana	-0.3010181
-4.562233	channel	-0.2252484
-4.562233	chargers	-0.2252484
-4.562233	chat	-0.2252484
-4.562233	chaza	-0.3010181
-4.562233	checkbox	-0.2252484
-4.562233	chili	-0.3010181
-4.562233	china	-0.3010181
-4.562233	chinese	-0.3010181
-4.562233	chopho	-0.3010181
-4.562233	christians	-0.2252484
-4.562233	chromu	-0.3010181
-3.960173	church	-0.8273084
-4.562233	churches	-0.2252484
-4.562233	chweba	-0.2252484
-4.386142	chwepheshe	-0.4013397
-4.562233	cilo	-0.2252484
-4.386142	cinana	-0.4771034
-4.562233	cindezeleka	-0.2252484
-4.562233	ciom	-0.3010181
-4.562233	cishe	-0.3010181
-4.562233	citation	-0.3010121
-4.261203	city	-0.3221442
-4.562233	civil	-0.3010062
-4.562233	claim	-0.3010181
-4.562233	clips	-0.2252484
-4.562233	cma	-0.3010181
-4.386142	co	-0.2874194
-4.562233	code	-0.3009169
-4.562233	colleges	-0.2252484
-4.386142	color	-0.2252342
-4.562233	coma	-0.3010181
-4.562233	combustion	-0.3010181
-4.562233	comic	-0.3010181
-4.562233	commander	-0.2252484
-4.562233	companies	-0.3010181
-4.386142	company	-0.4013397
-4.386142	concession	-0.2874194
-4.562233	conference	-0.2252484
-4.562233	congress	-0.2252484
-4.562233	containing	-0.3010181
-4.562233	continent	-0.2252484
-4.562233	continental	-0.3009288
-4.562233	contracts	-0.3010181
-4.562233	coptic	-0.3009824
-4.562233	corps	-0.2252484
-4.562233	council	-0.2252484
-4.085112	countries	-0.7023696
-4.386142	court	-0.4013397
-4.386142	cross	-0.4013397
-4.562233	cu	-0.2252484
-4.562233	cukuthi	-0.3010181
-4.386142	cup	-0.3010062
-4.562233	current	-0.3009705
-4.562233	customs	-0.3010062
-4.386142	cvms	-0.4771034
-4.562233	cwaka	-0.2252484
-4.562233	cwaningo	-0.3010181
-4.562233	cwecwa	-0.2252484
-4.562233	d	-0.2252484
-4.386142	da	-0.4771034
-4.562233	dabula	-0.2252484
-4.562233	dadewethu	-0.2252484
-4.562233	daf	-0.2252484
-4.562233	dakanyekayo	-0.3010181
-4.562233	dana	-0.2252484
-4.562233	dankie	-0.3010181
-4.562233	dar	-0.3010181
-4.562233	data	-0.3010181
-4.562233	databose	-0.3010181
-4.085112	date	-0.2251846
-4.562233	david	-0.3010181
-4.562233	day	-0.3010121
-4.562233	dazwe	-0.3010181
-4.562233	dcj	-0.2252484
-4.562233	dead	-0.3010121
-4.562233	deaths	-0.2252484
-4.562233	december	-0.2252484
-4.386142	declaration	-0.4013397
-4.562233	deedsweb	-0.2252484
-4.562233	delana	-0.3010181
-4.562233	delta	-0.3009764
-4.562233	demede	-0.3010181
-4.261203	democratic	-0.3978865
-4.562233	deni	-0.2252484
-4.562233	density	-0.2252484
-4.562233	des	-0.3010062
-4.562233	desk	-0.3010181
-4.386142	dialects	-0.4013397
-4.562233	didiyela	-0.3010181
-4.562233	diego	-0.3010181
-4.562233	dili	-0.2252484
-4.562233	dioxide	-0.3010181
-4.562233	directors	-0.2252484
-4.562233	disease	-0.3010181
-4.562233	diseases	-0.2252484
-4.562233	disemba	-0.2252484
-4.562233	dishani	-0.2252484
-4.562233	disheni	-0.2252484
-4.386142	disi	-0.4771034
-4.562233	district	-0.3010121
-4.562233	dlana	-0.3010181
-4.562233	dlela	-0.3010181
-4.562233	dlomo	-0.2252484
-4.562233	dludlu	-0.3010181
-4.386142	dnodokotela	-0.2090159
-4.562233	doha	-0.3010181
-4.562233	dokotela	-0.2252484
-4.562233	dolobha	-0.2252484
-4.562233	drc	-0.3010181
-4.562233	drug	-0.2252484
-4.562233	dti	-0.3010181
-4.562233	dumisane	-0.2252484
-4.386142	dumo	-0.4771034
-4.386142	dutch	-0.4770856
-4.386142	dvd	-0.4771034
-4.562233	e	-0.3010181
-4.562233	eafrika	-0.2252484
-4.085112	east	-0.3521171
-4.085112	eastern	-0.4258557
-4.562233	eba	-0.3010181
-4.562233	ebakhonzile	-0.3010181
-4.562233	ebalazweni	-0.3010062
-4.562233	ebaleni	-0.2252484
-4.562233	ebalisa	-0.2252484
-4.562233	ebalulayo	-0.2252484
-4.386142	ebaluleke	-0.4013397
-4.562233	ebalwa	-0.2252484
-4.562233	ebamba	-0.2252484
-4.562233	ebambe	-0.2252484
-4.562233	ebambekile	-0.2252484
-4.386142	ebambelela	-0.4771034
-4.562233	ebanda	-0.3010181
-4.562233	ebandakanya	-0.3010062
-4.562233	ebandla	-0.2252484
-4.562233	ebandleni	-0.3010181
-4.562233	ebandlululiwe	-0.3010181
-4.562233	ebanga	-0.3010181
-4.562233	ebangelwe	-0.3010181
-4.562233	ebangeni	-0.2252484
-4.386142	ebantwini	-0.2874194
-4.562233	ebanzi	-0.3010181
-4.562233	ebazisa	-0.3010181
-4.562233	ebe	-0.2252484
-4.562233	ebehlala	-0.3009288
-4.164293	ebeka	-0.3543294
-4.562233	ebekela	-0.3010181
-4.562233	ebekelwe	-0.3010181
-4.386142	ebekiwe	-0.2252342
-4.562233	ebekiweyo	-0.3010181
-4.562233	ebekutshela	-0.2252484
-4.562233	ebekwa	-0.3010181
-4.562233	ebekwe	-0.2252484
-4.562233	ebeleni	-0.2252484
-4.562233	ebelizosihlala	-0.3010181
-4.562233	ebengikade	-0.2252484
-4.562233	ebengikuxoxela	-0.2252484
-3.863263	ebese	-0.3058377
-4.562233	ebesebenzisa	-0.3010181
-4.562233	ebeselivulekile	-0.3010181
-4.562233	ebesengizozithola	-0.3010181
-4.562233	ebesesihluphe	-0.2252484
-4.562233	ebesikucabangile	-0.3010181
-4.562233	ebesingatholakala	-0.3010181
-4.562233	ebesiphethwe	-0.3010181
-4.562233	ebezihambisana	-0.3010181
-4.562233	ebezingamgona	-0.2252484
-4.562233	ebhajethi	-0.3010181
-4.562233	ebhalisa	-0.3010181
-4.386142	ebhalisiwe	-0.4013397
-4.562233	ebhaliswe	-0.3009764
-4.386142	ebhaliwe	-0.2252342
-4.562233	ebhalwe	-0.3010181
-4.261203	ebhange	-0.287401
-4.562233	ebheka	-0.2252484
-4.562233	ebhekana	-0.3010181
-4.562233	ebheke	-0.3010181
-4.261203	ebhekene	-0.2874071
-4.562233	ebhekise	-0.3010181
-4.386142	ebhekisisa	-0.2874194
-4.562233	ebhekuzulu	-0.2252484
-4.562233	ebhekwe	-0.3010181
-4.386142	ebheshini	-0.4771034
-4.562233	ebhizinisi	-0.3010181
-4.562233	ebhizinisini	-0.3010181
-4.261203	ebhodi	-0.3220946
-4.562233	ebhodini	-0.2252484
-4.562233	ebhokisini	-0.3010181
-4.562233	ebhukwini	-0.3010181
-4.562233	ebhuthini	-0.2252484
-4.562233	ebigxile	-0.2252484
-4.562233	ebihlosiwe	-0.3010181
-4.562233	ebisecopenhagen	-0.3010121
-4.562233	ebizenza	-0.3010181
-4.562233	ebizwa	-0.2252484
-4.562233	ebomvu	-0.2252484
-4.562233	ebona	-0.2252484
-4.562233	ebonakala	-0.2252484
-4.562233	ebonakalayo	-0.3010181
-4.562233	ebonisa	-0.3010181
-4.562233	ebrithani	-0.3010181
-4.562233	ebucayi	-0.3010181
-4.562233	ebucayini	-0.3010181
-4.562233	ebudaleni	-0.3010181
-4.562233	ebudeni	-0.3010181
-4.562233	ebudlelwaneni	-0.3010181
-4.562233	ebufakazini	-0.3010181
-4.386142	ebugebengwini	-0.4771034
-4.562233	ebuka	-0.3010181
-4.562233	ebukhosini	-0.2252484
-4.386142	ebukisisa	-0.4013397
-4.562233	ebukwa	-0.3010181
-4.562233	ebukwayo	-0.2874378
-4.562233	ebulilini	-0.3010181
-4.562233	ebumbene	-0.3010181
-4.562233	ebumnyameni	-0.2252484
-4.386142	ebuningini	-0.4013397
-4.562233	ebuntombini	-0.2252484
-4.562233	ebuntwini	-0.3010181
-4.562233	ebunzini	-0.2252484
-4.562233	ebushukisisa	-0.2252484
-4.562233	ebuswa	-0.3010181
-4.562233	ebusweni	-0.2252484
-4.018165	ebuya	-0.3287261
-4.562233	ebuye	-0.3010181
-4.562233	ebuyekeziwe	-0.3010181
-4.562233	ebuyiselelwa	-0.2252484
-4.562233	ebuyiswayo	-0.3010181
-4.562233	ebuzwa	-0.2252484
-4.562233	ecabanga	-0.2252484
-4.562233	ecacile	-0.3010181
-4.562233	ecala	-0.3010181
-4.562233	ecaleni	-0.3010181
-4.562233	ecamele	-0.2252484
-4.562233	ecanada	-0.3010181
-4.562233	ecansini	-0.2252484
-4.562233	ecashuniwe	-0.2252484
-4.562233	ecatshangiwe	-0.2252484
-4.562233	ecela	-0.2252484
-4.562233	eceliwe	-0.2252484
-4.386142	echaza	-0.22522
-4.164293	echazwe	-0.3543417
-4.386142	echezile	-0.4771034
-4.562233	echitha	-0.3010181
-4.562233	echobana	-0.2252484
-4.562233	echweba	-0.2252484
-4.562233	echwebeni	-0.3010181
-4.562233	ecibithe	-0.2252484
-4.562233	ecinyiwe	-0.3010181
-4.562233	economic	-0.2252484
-4.386142	economy	-0.4013397
-4.562233	edakiwe	-0.3010181
-4.562233	edaleka	-0.3010181
-4.562233	edalwa	-0.3010181
-4.386142	edanda	-0.4771034
-4.562233	edelagubhe	-0.2252484
-4.562233	edidekile	-0.2252484
-4.386142	edidiyele	-0.4013397
-4.085112	edidiyelwe	-0.7023696
-4.562233	edilika	-0.3010181
-4.386142	edinga	-0.4770975
-4.562233	edingeka	-0.2252484
-4.261203	edingekayo	-0.3978983
-4.562233	edingela	-0.3010181
-4.562233	edingidwayo	-0.3010181
-4.562233	edingwa	-0.2874378
-4.562233	edinwa	-0.3010181
-4.562233	edishizelayo	-0.2252484
-4.562233	edla	-0.2252484
-4.562233	edlalwa	-0.3010181
-4.562233	edliwa	-0.2252484
-4.562233	edliwayo	-0.3010181
-4.562233	edlula	-0.2252484
-4.562233	edlulela	-0.3010181
-4.562233	edobayo	-0.3010181
-4.562233	edofika	-0.2252484
-4.562233	edokodweni	-0.3010181
-4.562233	edolobheni	-0.2252484
-4.562233	edolofika	-0.2252484
-4.562233	edonsa	-0.3010181
-4.562233	edonse	-0.2252484
-4.562233	edumazayo	-0.3010181
-4.562233	edumbe	-0.3010181
-4.562233	edumele	-0.2252484
-4.562233	eduzane	-0.2252484
-4.562233	eduze	-0.3010181
-4.386142	edwaleni	-0.4771034
-4.562233	edward	-0.3010121
-4.562233	edwetshwe	-0.3010181
-4.562233	efaka	-0.3010181
-4.562233	efake	-0.3010181
-4.562233	efakelwe	-0.3010181
-4.386142	efakiwe	-0.4013397
-4.562233	efakwa	-0.3010181
-4.386142	efana	-0.2252342
-4.261203	efanayo	-0.3979102
-4.018165	efanele	-0.3849675
-4.386142	efanelekile	-0.2874194
-4.562233	efasiteleni	-0.3010181
-4.562233	efayelini	-0.3010181
-4.386142	efemini	-0.2874194
-4.562233	efeni	-0.3010181
-4.562233	efenilenja	-0.2252484
-4.562233	efika	-0.3010181
-4.562233	efikelwa	-0.2252484
-4.562233	efile	-0.3010181
-4.562233	efilidi	-0.2252484
-4.562233	efingqiwe	-0.2874378
-4.386142	efinyelela	-0.4013397
-4.386142	efisa	-0.4770975
-4.562233	efodi	-0.2252484
-4.562233	efomini	-0.3010181
-4.562233	efrayimi	-0.2252484
-4.386142	efulelwe	-0.2874194
-4.562233	efuna	-0.3010181
-4.562233	efunda	-0.3010181
-4.562233	efunde	-0.3010181
-4.018165	efundela	-0.3058671
-4.562233	efundelwa	-0.3010062
-4.562233	efuneka	-0.3010181
-4.386142	efunekayo	-0.4013397
-4.562233	efunga	-0.3010181
-4.386142	efungelwe	-0.2252342
-4.562233	efunwe	-0.3010181
-4.562233	efuthelana	-0.3010181
-4.562233	egadile	-0.3010181
-4.562233	egagasini	-0.2252484
-4.562233	egalaji	-0.3010181
-4.562233	egamele	-0.3010181
-4.085112	egameni	-0.2251846
-4.261203	egatsheni	-0.2089792
-4.562233	egaxelwa	-0.3010181
-4.562233	egazethini	-0.2252484
-4.562233	egazi	-0.2252484
-4.562233	egazini	-0.3010181
-4.562233	egcina	-0.2252484
-4.562233	egciniwe	-0.2252484
-4.562233	egcinwe	-0.3010181
-4.386142	egciwaneni	-0.4771034
-4.562233	egcwele	-0.3010181
-4.562233	egedezela	-0.3010181
